{"learner":{"attributes":{"scikit_learn":"{\"_estimator_type\": \"classifier\"}"},"feature_names":[],"feature_types":[],"gradient_booster":{"model":{"gbtree_model_param":{"num_parallel_tree":"1","num_trees":"4400"},"iteration_indptr":[0,22,44,66,88,110,132,154,176,198,220,242,264,286,308,330,352,374,396,418,440,462,484,506,528,550,572,594,616,638,660,682,704,726,748,770,792,814,836,858,880,902,924,946,968,990,1012,1034,1056,1078,1100,1122,1144,1166,1188,1210,1232,1254,1276,1298,1320,1342,1364,1386,1408,1430,1452,1474,1496,1518,1540,1562,1584,1606,1628,1650,1672,1694,1716,1738,1760,1782,1804,1826,1848,1870,1892,1914,1936,1958,1980,2002,2024,2046,2068,2090,2112,2134,2156,2178,2200,2222,2244,2266,2288,2310,2332,2354,2376,2398,2420,2442,2464,2486,2508,2530,2552,2574,2596,2618,2640,2662,2684,2706,2728,2750,2772,2794,2816,2838,2860,2882,2904,2926,2948,2970,2992,3014,3036,3058,3080,3102,3124,3146,3168,3190,3212,3234,3256,3278,3300,3322,3344,3366,3388,3410,3432,3454,3476,3498,3520,3542,3564,3586,3608,3630,3652,3674,3696,3718,3740,3762,3784,3806,3828,3850,3872,3894,3916,3938,3960,3982,4004,4026,4048,4070,4092,4114,4136,4158,4180,4202,4224,4246,4268,4290,4312,4334,4356,4378,4400],"tree_info":[0,1,2,3,4,5,6,7,8,9,10,11,12,13,14,15,16,17,18,19,20,21,0,1,2,3,4,5,6,7,8,9,10,11,12,13,14,15,16,17,18,19,20,21,0,1,2,3,4,5,6,7,8,9,10,11,12,13,14,15,16,17,18,19,20,21,0,1,2,3,4,5,6,7,8,9,10,11,12,13,14,15,16,17,18,19,20,21,0,1,2,3,4,5,6,7,8,9,10,11,12,13,14,15,16,17,18,19,20,21,0,1,2,3,4,5,6,7,8,9,10,11,12,13,14,15,16,17,18,19,20,21,0,1,2,3,4,5,6,7,8,9,10,11,12,13,14,15,16,17,18,19,20,21,0,1,2,3,4,5,6,7,8,9,10,11,12,13,14,15,16,17,18,19,20,21,0,1,2,3,4,5,6,7,8,9,10,11,12,13,14,15,16,17,18,19,20,21,0,1,2,3,4,5,6,7,8,9,10,11,12,13,14,15,16,17,18,19,20,21,0,1,2,3,4,5,6,7,8,9,10,11,12,13,14,15,16,17,18,19,20,21,0,1,2,3,4,5,6,7,8,9,10,11,12,13,14,15,16,17,18,19,20,21,0,1,2,3,4,5,6,7,8,9,10,11,12,13,14,15,16,17,18,19,20,21,0,1,2,3,4,5,6,7,8,9,10,11,12,13,14,15,16,17,18,19,20,21,0,1,2,3,4,5,6,7,8,9,10,11,12,13,14,15,16,17,18,19,20,21,0,1,2,3,4,5,6,7,8,9,10,11,12,13,14,15,16,17,18,19,20,21,0,1,2,3,4,5,6,7,8,9,10,11,12,13,14,15,16,17,18,19,20,21,0,1,2,3,4,5,6,7,8,9,10,11,12,13,14,15,16,17,18,19,20,21,0,1,2,3,4,5,6,7,8,9,10,11,12,13,14,15,16,17,18,19,20,21,0,1,2,3,4,5,6,7,8,9,10,11,12,13,14,15,16,17,18,19,20,21,0,1,2,3,4,5,6,7,8,9,10,11,12,13,14,15,16,17,18,19,20,21,0,1,2,3,4,5,6,7,8,9,10,11,12,13,14,15,16,17,18,19,20,21,0,1,2,3,4,5,6,7,8,9,10,11,12,13,14,15,16,17,18,19,20,21,0,1,2,3,4,5,6,7,8,9,10,11,12,13,14,15,16,17,18,19,20,21,0,1,2,3,4,5,6,7,8,9,10,11,12,13,14,15,16,17,18,19,20,21,0,1,2,3,4,5,6,7,8,9,10,11,12,13,14,15,16,17,18,19,20,21,0,1,2,3,4,5,6,7,8,9,10,11,12,13,14,15,16,17,18,19,20,21,0,1,2,3,4,5,6,7,8,9,10,11,12,13,14,15,16,17,18,19,20,21,0,1,2,3,4,5,6,7,8,9,10,11,12,13,14,15,16,17,18,19,20,21,0,1,2,3,4,5,6,7,8,9,10,11,12,13,14,15,16,17,18,19,20,21,0,1,2,3,4,5,6,7,8,9,10,11,12,13,14,15,16,17,18,19,20,21,0,1,2,3,4,5,6,7,8,9,10,11,12,13,14,15,16,17,18,19,20,21,0,1,2,3,4,5,6,7,8,9,10,11,12,13,14,15,16,17,18,19,20,21,0,1,2,3,4,5,6,7,8,9,10,11,12,13,14,15,16,17,18,19,20,21,0,1,2,3,4,5,6,7,8,9,10,11,12,13,14,15,16,17,18,19,20,21,0,1,2,3,4,5,6,7,8,9,10,11,12,13,14,15,16,17,18,19,20,21,0,1,2,3,4,5,6,7,8,9,10,11,12,13,14,15,16,17,18,19,20,21,0,1,2,3,4,5,6,7,8,9,10,11,12,13,14,15,16,17,18,19,20,21,0,1,2,3,4,5,6,7,8,9,10,11,12,13,14,15,16,17,18,19,20,21,0,1,2,3,4,5,6,7,8,9,10,11,12,13,14,15,16,17,18,19,20,21,0,1,2,3,4,5,6,7,8,9,10,11,12,13,14,15,16,17,18,19,20,21,0,1,2,3,4,5,6,7,8,9,10,11,12,13,14,15,16,17,18,19,20,21,0,1,2,3,4,5,6,7,8,9,10,11,12,13,14,15,16,17,18,19,20,21,0,1,2,3,4,5,6,7,8,9,10,11,12,13,14,15,16,17,18,19,20,21,0,1,2,3,4,5,6,7,8,9,10,11,12,13,14,15,16,17,18,19,20,21,0,1,2,3,4,5,6,7,8,9,10,11,12,13,14,15,16,17,18,19,20,21,0,1,2,3,4,5,6,7,8,9,10,11,12,13,14,15,16,17,18,19,20,21,0,1,2,3,4,5,6,7,8,9,10,11,12,13,14,15,16,17,18,19,20,21,0,1,2,3,4,5,6,7,8,9,10,11,12,13,14,15,16,17,18,19,20,21,0,1,2,3,4,5,6,7,8,9,10,11,12,13,14,15,16,17,18,19,20,21,0,1,2,3,4,5,6,7,8,9,10,11,12,13,14,15,16,17,18,19,20,21,0,1,2,3,4,5,6,7,8,9,10,11,12,13,14,15,16,17,18,19,20,21,0,1,2,3,4,5,6,7,8,9,10,11,12,13,14,15,16,17,18,19,20,21,0,1,2,3,4,5,6,7,8,9,10,11,12,13,14,15,16,17,18,19,20,21,0,1,2,3,4,5,6,7,8,9,10,11,12,13,14,15,16,17,18,19,20,21,0,1,2,3,4,5,6,7,8,9,10,11,12,13,14,15,16,17,18,19,20,21,0,1,2,3,4,5,6,7,8,9,10,11,12,13,14,15,16,17,18,19,20,21,0,1,2,3,4,5,6,7,8,9,10,11,12,13,14,15,16,17,18,19,20,21,0,1,2,3,4,5,6,7,8,9,10,11,12,13,14,15,16,17,18,19,20,21,0,1,2,3,4,5,6,7,8,9,10,11,12,13,14,15,16,17,18,19,20,21,0,1,2,3,4,5,6,7,8,9,10,11,12,13,14,15,16,17,18,19,20,21,0,1,2,3,4,5,6,7,8,9,10,11,12,13,14,15,16,17,18,19,20,21,0,1,2,3,4,5,6,7,8,9,10,11,12,13,14,15,16,17,18,19,20,21,0,1,2,3,4,5,6,7,8,9,10,11,12,13,14,15,16,17,18,19,20,21,0,1,2,3,4,5,6,7,8,9,10,11,12,13,14,15,16,17,18,19,20,21,0,1,2,3,4,5,6,7,8,9,10,11,12,13,14,15,16,17,18,19,20,21,0,1,2,3,4,5,6,7,8,9,10,11,12,13,14,15,16,17,18,19,20,21,0,1,2,3,4,5,6,7,8,9,10,11,12,13,14,15,16,17,18,19,20,21,0,1,2,3,4,5,6,7,8,9,10,11,12,13,14,15,16,17,18,19,20,21,0,1,2,3,4,5,6,7,8,9,10,11,12,13,14,15,16,17,18,19,20,21,0,1,2,3,4,5,6,7,8,9,10,11,12,13,14,15,16,17,18,19,20,21,0,1,2,3,4,5,6,7,8,9,10,11,12,13,14,15,16,17,18,19,20,21,0,1,2,3,4,5,6,7,8,9,10,11,12,13,14,15,16,17,18,19,20,21,0,1,2,3,4,5,6,7,8,9,10,11,12,13,14,15,16,17,18,19,20,21,0,1,2,3,4,5,6,7,8,9,10,11,12,13,14,15,16,17,18,19,20,21,0,1,2,3,4,5,6,7,8,9,10,11,12,13,14,15,16,17,18,19,20,21,0,1,2,3,4,5,6,7,8,9,10,11,12,13,14,15,16,17,18,19,20,21,0,1,2,3,4,5,6,7,8,9,10,11,12,13,14,15,16,17,18,19,20,21,0,1,2,3,4,5,6,7,8,9,10,11,12,13,14,15,16,17,18,19,20,21,0,1,2,3,4,5,6,7,8,9,10,11,12,13,14,15,16,17,18,19,20,21,0,1,2,3,4,5,6,7,8,9,10,11,12,13,14,15,16,17,18,19,20,21,0,1,2,3,4,5,6,7,8,9,10,11,12,13,14,15,16,17,18,19,20,21,0,1,2,3,4,5,6,7,8,9,10,11,12,13,14,15,16,17,18,19,20,21,0,1,2,3,4,5,6,7,8,9,10,11,12,13,14,15,16,17,18,19,20,21,0,1,2,3,4,5,6,7,8,9,10,11,12,13,14,15,16,17,18,19,20,21,0,1,2,3,4,5,6,7,8,9,10,11,12,13,14,15,16,17,18,19,20,21,0,1,2,3,4,5,6,7,8,9,10,11,12,13,14,15,16,17,18,19,20,21,0,1,2,3,4,5,6,7,8,9,10,11,12,13,14,15,16,17,18,19,20,21,0,1,2,3,4,5,6,7,8,9,10,11,12,13,14,15,16,17,18,19,20,21,0,1,2,3,4,5,6,7,8,9,10,11,12,13,14,15,16,17,18,19,20,21,0,1,2,3,4,5,6,7,8,9,10,11,12,13,14,15,16,17,18,19,20,21,0,1,2,3,4,5,6,7,8,9,10,11,12,13,14,15,16,17,18,19,20,21,0,1,2,3,4,5,6,7,8,9,10,11,12,13,14,15,16,17,18,19,20,21,0,1,2,3,4,5,6,7,8,9,10,11,12,13,14,15,16,17,18,19,20,21,0,1,2,3,4,5,6,7,8,9,10,11,12,13,14,15,16,17,18,19,20,21,0,1,2,3,4,5,6,7,8,9,10,11,12,13,14,15,16,17,18,19,20,21,0,1,2,3,4,5,6,7,8,9,10,11,12,13,14,15,16,17,18,19,20,21,0,1,2,3,4,5,6,7,8,9,10,11,12,13,14,15,16,17,18,19,20,21,0,1,2,3,4,5,6,7,8,9,10,11,12,13,14,15,16,17,18,19,20,21,0,1,2,3,4,5,6,7,8,9,10,11,12,13,14,15,16,17,18,19,20,21,0,1,2,3,4,5,6,7,8,9,10,11,12,13,14,15,16,17,18,19,20,21,0,1,2,3,4,5,6,7,8,9,10,11,12,13,14,15,16,17,18,19,20,21,0,1,2,3,4,5,6,7,8,9,10,11,12,13,14,15,16,17,18,19,20,21,0,1,2,3,4,5,6,7,8,9,10,11,12,13,14,15,16,17,18,19,20,21,0,1,2,3,4,5,6,7,8,9,10,11,12,13,14,15,16,17,18,19,20,21,0,1,2,3,4,5,6,7,8,9,10,11,12,13,14,15,16,17,18,19,20,21,0,1,2,3,4,5,6,7,8,9,10,11,12,13,14,15,16,17,18,19,20,21,0,1,2,3,4,5,6,7,8,9,10,11,12,13,14,15,16,17,18,19,20,21,0,1,2,3,4,5,6,7,8,9,10,11,12,13,14,15,16,17,18,19,20,21,0,1,2,3,4,5,6,7,8,9,10,11,12,13,14,15,16,17,18,19,20,21,0,1,2,3,4,5,6,7,8,9,10,11,12,13,14,15,16,17,18,19,20,21,0,1,2,3,4,5,6,7,8,9,10,11,12,13,14,15,16,17,18,19,20,21,0,1,2,3,4,5,6,7,8,9,10,11,12,13,14,15,16,17,18,19,20,21,0,1,2,3,4,5,6,7,8,9,10,11,12,13,14,15,16,17,18,19,20,21,0,1,2,3,4,5,6,7,8,9,10,11,12,13,14,15,16,17,18,19,20,21,0,1,2,3,4,5,6,7,8,9,10,11,12,13,14,15,16,17,18,19,20,21,0,1,2,3,4,5,6,7,8,9,10,11,12,13,14,15,16,17,18,19,20,21,0,1,2,3,4,5,6,7,8,9,10,11,12,13,14,15,16,17,18,19,20,21,0,1,2,3,4,5,6,7,8,9,10,11,12,13,14,15,16,17,18,19,20,21,0,1,2,3,4,5,6,7,8,9,10,11,12,13,14,15,16,17,18,19,20,21,0,1,2,3,4,5,6,7,8,9,10,11,12,13,14,15,16,17,18,19,20,21,0,1,2,3,4,5,6,7,8,9,10,11,12,13,14,15,16,17,18,19,20,21,0,1,2,3,4,5,6,7,8,9,10,11,12,13,14,15,16,17,18,19,20,21,0,1,2,3,4,5,6,7,8,9,10,11,12,13,14,15,16,17,18,19,20,21,0,1,2,3,4,5,6,7,8,9,10,11,12,13,14,15,16,17,18,19,20,21,0,1,2,3,4,5,6,7,8,9,10,11,12,13,14,15,16,17,18,19,20,21,0,1,2,3,4,5,6,7,8,9,10,11,12,13,14,15,16,17,18,19,20,21,0,1,2,3,4,5,6,7,8,9,10,11,12,13,14,15,16,17,18,19,20,21,0,1,2,3,4,5,6,7,8,9,10,11,12,13,14,15,16,17,18,19,20,21,0,1,2,3,4,5,6,7,8,9,10,11,12,13,14,15,16,17,18,19,20,21,0,1,2,3,4,5,6,7,8,9,10,11,12,13,14,15,16,17,18,19,20,21,0,1,2,3,4,5,6,7,8,9,10,11,12,13,14,15,16,17,18,19,20,21,0,1,2,3,4,5,6,7,8,9,10,11,12,13,14,15,16,17,18,19,20,21,0,1,2,3,4,5,6,7,8,9,10,11,12,13,14,15,16,17,18,19,20,21,0,1,2,3,4,5,6,7,8,9,10,11,12,13,14,15,16,17,18,19,20,21,0,1,2,3,4,5,6,7,8,9,10,11,12,13,14,15,16,17,18,19,20,21,0,1,2,3,4,5,6,7,8,9,10,11,12,13,14,15,16,17,18,19,20,21,0,1,2,3,4,5,6,7,8,9,10,11,12,13,14,15,16,17,18,19,20,21,0,1,2,3,4,5,6,7,8,9,10,11,12,13,14,15,16,17,18,19,20,21,0,1,2,3,4,5,6,7,8,9,10,11,12,13,14,15,16,17,18,19,20,21,0,1,2,3,4,5,6,7,8,9,10,11,12,13,14,15,16,17,18,19,20,21,0,1,2,3,4,5,6,7,8,9,10,11,12,13,14,15,16,17,18,19,20,21,0,1,2,3,4,5,6,7,8,9,10,11,12,13,14,15,16,17,18,19,20,21,0,1,2,3,4,5,6,7,8,9,10,11,12,13,14,15,16,17,18,19,20,21,0,1,2,3,4,5,6,7,8,9,10,11,12,13,14,15,16,17,18,19,20,21,0,1,2,3,4,5,6,7,8,9,10,11,12,13,14,15,16,17,18,19,20,21,0,1,2,3,4,5,6,7,8,9,10,11,12,13,14,15,16,17,18,19,20,21,0,1,2,3,4,5,6,7,8,9,10,11,12,13,14,15,16,17,18,19,20,21,0,1,2,3,4,5,6,7,8,9,10,11,12,13,14,15,16,17,18,19,20,21,0,1,2,3,4,5,6,7,8,9,10,11,12,13,14,15,16,17,18,19,20,21,0,1,2,3,4,5,6,7,8,9,10,11,12,13,14,15,16,17,18,19,20,21,0,1,2,3,4,5,6,7,8,9,10,11,12,13,14,15,16,17,18,19,20,21,0,1,2,3,4,5,6,7,8,9,10,11,12,13,14,15,16,17,18,19,20,21,0,1,2,3,4,5,6,7,8,9,10,11,12,13,14,15,16,17,18,19,20,21,0,1,2,3,4,5,6,7,8,9,10,11,12,13,14,15,16,17,18,19,20,21,0,1,2,3,4,5,6,7,8,9,10,11,12,13,14,15,16,17,18,19,20,21,0,1,2,3,4,5,6,7,8,9,10,11,12,13,14,15,16,17,18,19,20,21,0,1,2,3,4,5,6,7,8,9,10,11,12,13,14,15,16,17,18,19,20,21,0,1,2,3,4,5,6,7,8,9,10,11,12,13,14,15,16,17,18,19,20,21,0,1,2,3,4,5,6,7,8,9,10,11,12,13,14,15,16,17,18,19,20,21,0,1,2,3,4,5,6,7,8,9,10,11,12,13,14,15,16,17,18,19,20,21,0,1,2,3,4,5,6,7,8,9,10,11,12,13,14,15,16,17,18,19,20,21,0,1,2,3,4,5,6,7,8,9,10,11,12,13,14,15,16,17,18,19,20,21,0,1,2,3,4,5,6,7,8,9,10,11,12,13,14,15,16,17,18,19,20,21,0,1,2,3,4,5,6,7,8,9,10,11,12,13,14,15,16,17,18,19,20,21,0,1,2,3,4,5,6,7,8,9,10,11,12,13,14,15,16,17,18,19,20,21,0,1,2,3,4,5,6,7,8,9,10,11,12,13,14,15,16,17,18,19,20,21,0,1,2,3,4,5,6,7,8,9,10,11,12,13,14,15,16,17,18,19,20,21,0,1,2,3,4,5,6,7,8,9,10,11,12,13,14,15,16,17,18,19,20,21,0,1,2,3,4,5,6,7,8,9,10,11,12,13,14,15,16,17,18,19,20,21,0,1,2,3,4,5,6,7,8,9,10,11,12,13,14,15,16,17,18,19,20,21,0,1,2,3,4,5,6,7,8,9,10,11,12,13,14,15,16,17,18,19,20,21,0,1,2,3,4,5,6,7,8,9,10,11,12,13,14,15,16,17,18,19,20,21,0,1,2,3,4,5,6,7,8,9,10,11,12,13,14,15,16,17,18,19,20,21,0,1,2,3,4,5,6,7,8,9,10,11,12,13,14,15,16,17,18,19,20,21,0,1,2,3,4,5,6,7,8,9,10,11,12,13,14,15,16,17,18,19,20,21,0,1,2,3,4,5,6,7,8,9,10,11,12,13,14,15,16,17,18,19,20,21,0,1,2,3,4,5,6,7,8,9,10,11,12,13,14,15,16,17,18,19,20,21,0,1,2,3,4,5,6,7,8,9,10,11,12,13,14,15,16,17,18,19,20,21,0,1,2,3,4,5,6,7,8,9,10,11,12,13,14,15,16,17,18,19,20,21,0,1,2,3,4,5,6,7,8,9,10,11,12,13,14,15,16,17,18,19,20,21,0,1,2,3,4,5,6,7,8,9,10,11,12,13,14,15,16,17,18,19,20,21,0,1,2,3,4,5,6,7,8,9,10,11,12,13,14,15,16,17,18,19,20,21,0,1,2,3,4,5,6,7,8,9,10,11,12,13,14,15,16,17,18,19,20,21,0,1,2,3,4,5,6,7,8,9,10,11,12,13,14,15,16,17,18,19,20,21,0,1,2,3,4,5,6,7,8,9,10,11,12,13,14,15,16,17,18,19,20,21,0,1,2,3,4,5,6,7,8,9,10,11,12,13,14,15,16,17,18,19,20,21,0,1,2,3,4,5,6,7,8,9,10,11,12,13,14,15,16,17,18,19,20,21,0,1,2,3,4,5,6,7,8,9,10,11,12,13,14,15,16,17,18,19,20,21,0,1,2,3,4,5,6,7,8,9,10,11,12,13,14,15,16,17,18,19,20,21,0,1,2,3,4,5,6,7,8,9,10,11,12,13,14,15,16,17,18,19,20,21,0,1,2,3,4,5,6,7,8,9,10,11,12,13,14,15,16,17,18,19,20,21,0,1,2,3,4,5,6,7,8,9,10,11,12,13,14,15,16,17,18,19,20,21,0,1,2,3,4,5,6,7,8,9,10,11,12,13,14,15,16,17,18,19,20,21,0,1,2,3,4,5,6,7,8,9,10,11,12,13,14,15,16,17,18,19,20,21,0,1,2,3,4,5,6,7,8,9,10,11,12,13,14,15,16,17,18,19,20,21,0,1,2,3,4,5,6,7,8,9,10,11,12,13,14,15,16,17,18,19,20,21,0,1,2,3,4,5,6,7,8,9,10,11,12,13,14,15,16,17,18,19,20,21,0,1,2,3,4,5,6,7,8,9,10,11,12,13,14,15,16,17,18,19,20,21,0,1,2,3,4,5,6,7,8,9,10,11,12,13,14,15,16,17,18,19,20,21],"trees":[{"base_weights":[-2.3263787E-8,-5.2006382E-2,4.886174E0,-4.5785643E-2,9.6149844E-1],"categories":[],"categories_nodes":[],"categories_segments":[],"categories_sizes":[],"default_left":[0,0,0,0,0],"id":0,"left_children":[1,-1,3,-1,-1],"loss_changes":[3.9318094E2,0E0,3.8054196E2,0E0,0E0],"parents":[2147483647,0,0,2,2],"right_children":[2,-1,4,-1,-1],"split_conditions":[2.0237932E0,-5.2006382E-2,5.6689376E-1,-4.5785643E-2,9.6149844E-1],"split_indices":[1,0,4,0,0],"split_type":[0,0,0,0,0],"sum_hessian":[1.5272728E2,1.3884297E2,1.3884297E1,6.9421487E0,6.9421487E0],"tree_param":{"num_deleted":"0","num_feature":"7","num_nodes":"5","size_leaf_vector":"1"}},{"base_weights":[-2.3263787E-8,-5.1935643E-2,1.6466918E0,-5.064401E-2,9.6149844E-1],"categories":[],"categories_nodes":[],"categories_segments":[],"categories_sizes":[],"default_left":[0,0,0,0,0],"id":1,"left_children":[1,-1,3,-1,-1],"loss_changes":[1.3232585E2,0E0,6.41372E2,0E0,0E0],"parents":[2147483647,0,0,2,2],"right_children":[2,-1,4,-1,-1],"split_conditions":[5.058017E-1,-5.1935643E-2,5.007082E-1,-5.064401E-2,9.6149844E-1],"split_indices":[1,0,0,0,0],"split_type":[0,0,0,0,0],"sum_hessian":[1.5272728E2,1.166281E2,3.6099174E1,2.9157024E1,6.9421487E0],"tree_param":{"num_deleted":"0","num_feature":"7","num_nodes":"5","size_leaf_vector":"1"}},{"base_weights":[-2.3263787E-8,8.437785E-1,-5.1834445E-2,-5.08313E-2,2.563936E0,-4.8175182E-2,4.982481E0,-4.170177E-2,6.988435E0,4.7826084E-1,8.927456E0,-3.1218698E-2,1.20242916E-1,9.463935E-1,2.672065E-1],"categories":[],"categories_nodes":[],"categories_segments":[],"categories_sizes":[],"default_left":[0,0,0,0,0,0,0,0,0,0,0,0,0,0,0],"id":2,"left_children":[1,3,-1,-1,5,-1,7,-1,9,11,13,-1,-1,-1,-1],"loss_changes":[6.7672745E1,1.3824738E2,0E0,0E0,1.9449808E2,0E0,1.6130856E2,0E0,1.3104028E2,2.3883047E0,2.2384033E0,0E0,0E0,0E0,0E0],"parents":[2147483647,0,0,1,1,4,4,6,6,8,8,9,9,10,10],"right_children":[2,4,-1,-1,6,-1,8,-1,10,12,14,-1,-1,-1,-1],"split_conditions":[-5.0255364E-1,-7.927123E-1,-5.1834445E-2,-5.08313E-2,2.950479E-2,-4.8175182E-2,-1.1770863E-1,-4.170177E-2,1.4148372E-1,-3.8317227E-1,-4.565235E-1,-3.1218698E-2,1.20242916E-1,9.463935E-1,2.672065E-1],"split_indices":[6,6,0,0,5,0,3,0,1,4,2,0,0,0,0],"split_type":[0,0,0,0,0,0,0,0,0,0,0,0,0,0,0],"sum_hessian":[1.5272728E2,5.7880165E1,9.484711E1,3.2801655E1,2.5078512E1,1.1454546E1,1.3623967E1,3.9049587E0,9.719008E0,2.5165288E0,7.2024794E0,1.4752066E0,1.0413224E0,6.161157E0,1.0413224E0],"tree_param":{"num_deleted":"0","num_feature":"7","num_nodes":"15","size_leaf_vector":"1"}},{"base_weights":[-2.3263787E-8,7.508656E0,-5.2018967E-2,-3.538874E-2,9.6149844E-1],"categories":[],"categories_nodes":[],"categories_segments":[],"categories_sizes":[],"default_left":[0,0,0,0,0],"id":3,"left_children":[1,3,-1,-1,-1],"loss_changes":[6.043531E2,1.694242E2,0E0,0E0,0E0],"parents":[2147483647,0,0,1,1],"right_children":[2,4,-1,-1,-1],"split_conditions":[-2.2905192E0,-4.3679744E-1,-5.2018967E-2,-3.538874E-2,9.6149844E-1],"split_indices":[4,2,0,0,0],"split_type":[0,0,0,0,0],"sum_hessian":[1.5272728E2,9.024794E0,1.4370248E2,2.0826447E0,6.9421487E0],"tree_param":{"num_deleted":"0","num_feature":"7","num_nodes":"5","size_leaf_vector":"1"}},{"base_weights":[-2.3263787E-8,-2.2817321E-1,8.3326656E-1,-5.0332105E-1,9.7237563E-1,1.92233E-2,-5.1132476E-1,-4.9990576E-2,5.1397905E0,-5.194371E-2,-5.583758E-2,8.631673E-1,-3.882353E-2,2.2267206E-2,-2.8731344E-2],"categories":[],"categories_nodes":[],"categories_segments":[],"categories_sizes":[],"default_left":[0,0,0,0,0,0,0,0,0,0,0,0,0,0,0],"id":4,"left_children":[1,3,-1,5,7,-1,9,-1,11,-1,13,-1,-1,-1,-1],"loss_changes":[2.9418152E2,5.0237972E1,0E0,7.8405E-1,1.769525E2,0E0,4.2198944E-1,0E0,1.4828476E2,0E0,2.7389812E-1,0E0,0E0,0E0,0E0],"parents":[2147483647,0,0,1,1,3,3,4,4,6,6,8,8,10,10],"right_children":[2,4,-1,6,8,-1,10,-1,12,-1,14,-1,-1,-1,-1],"split_conditions":[1.0682837E0,8.78099E-1,8.3326656E-1,-1.4068677E0,4.5119372E-1,1.92233E-2,8.66175E-1,-4.9990576E-2,-6.782318E-1,-5.194371E-2,-3.4048653E-1,8.631673E-1,-3.882353E-2,2.2267206E-2,-2.8731344E-2],"split_indices":[4,4,0,1,6,0,4,0,1,0,0,0,0,0,0],"split_type":[0,0,0,0,0,0,0,0,0,0,0,0,0,0,0],"sum_hessian":[1.5272728E2,1.496033E2,3.123967E0,1.22181816E2,2.7421488E1,1.1280992E0,1.2105372E2,2.0913223E1,6.5082645E0,1.1879752E2,2.2561984E0,3.644628E0,2.8636365E0,1.0413224E0,1.214876E0],"tree_param":{"num_deleted":"0","num_feature":"7","num_nodes":"15","size_leaf_vector":"1"}},{"base_weights":[-2.3263787E-8,-5.1903218E-2,1.2623281E0,7.6501675E0,-5.093522E-2,-3.4375E-2,9.6149844E-1],"categories":[],"categories_nodes":[],"categories_segments":[],"categories_sizes":[],"default_left":[0,0,0,0,0,0,0],"id":5,"left_children":[1,-1,3,5,-1,-1,-1],"loss_changes":[1.01375595E2,0E0,5.1410626E2,1.5803455E2,0E0,0E0,0E0],"parents":[2147483647,0,0,2,2,3,3],"right_children":[2,-1,4,6,-1,-1,-1],"split_conditions":[7.9919666E-1,-5.1903218E-2,-2.0638037E-2,1.1469438E-1,-5.093522E-2,-3.4375E-2,9.6149844E-1],"split_indices":[0,0,4,6,0,0,0],"split_type":[0,0,0,0,0,0,0],"sum_hessian":[1.5272728E2,1.0864463E2,4.4082645E1,8.85124E0,3.5231403E1,1.9090909E0,6.9421487E0],"tree_param":{"num_deleted":"0","num_feature":"7","num_nodes":"7","size_leaf_vector":"1"}},{"base_weights":[-2.3263787E-8,-2.0235425E-1,8.087527E-1,-5.1983446E-2,1.8810157E0,7.88189E0,-4.898069E-2,2.1821861E-1,8.675109E-1],"categories":[],"categories_nodes":[],"categories_segments":[],"categories_sizes":[],"default_left":[0,0,0,0,0,0,0,0,0],"id":6,"left_children":[1,3,-1,-1,5,7,-1,-1,-1],"loss_changes":[2.532182E2,1.00820755E2,0E0,0E0,2.9092868E2,7.168457E0,0E0,0E0,0E0],"parents":[2147483647,0,0,1,1,4,4,5,5],"right_children":[2,4,-1,-1,6,8,-1,-1,-1],"split_conditions":[1.9117446E0,1.341903E0,8.087527E-1,-5.1983446E-2,-4.3679744E-1,2.082408E-1,-4.898069E-2,2.1821861E-1,8.675109E-1],"split_indices":[0,0,0,0,2,4,0,0,0],"split_type":[0,0,0,0,0,0,0,0,0],"sum_hessian":[1.5272728E2,1.4995041E2,2.7768595E0,1.3077274E2,1.9177687E1,4.7727275E0,1.4404959E1,1.0413224E0,3.731405E0],"tree_param":{"num_deleted":"0","num_feature":"7","num_nodes":"9","size_leaf_vector":"1"}},{"base_weights":[-2.3263787E-8,-5.2006382E-2,4.886174E0,9.6149844E-1,-4.5785643E-2],"categories":[],"categories_nodes":[],"categories_segments":[],"categories_sizes":[],"default_left":[0,0,0,0,0],"id":7,"left_children":[1,-1,3,-1,-1],"loss_changes":[3.9318094E2,0E0,3.8054196E2,0E0,0E0],"parents":[2147483647,0,0,2,2],"right_children":[2,-1,4,-1,-1],"split_conditions":[2.0237932E0,-5.2006382E-2,5.6689376E-1,9.6149844E-1,-4.5785643E-2],"split_indices":[1,0,4,0,0],"split_type":[0,0,0,0,0],"sum_hessian":[1.5272728E2,1.3884297E2,1.3884297E1,6.9421487E0,6.9421487E0],"tree_param":{"num_deleted":"0","num_feature":"7","num_nodes":"5","size_leaf_vector":"1"}},{"base_weights":[-2.3263787E-8,-5.1957812E-2,2.0789368E0,-4.8316773E-2,3.7032537E0,6.3741593E0,-4.6127286E-2,7.578794E0,-3.323263E-2,1.6923076E-1,8.077566E0,2.1821861E-1,8.581273E-1],"categories":[],"categories_nodes":[],"categories_segments":[],"categories_sizes":[],"default_left":[0,0,0,0,0,0,0,0,0,0,0,0,0],"id":8,"left_children":[1,-1,3,-1,5,7,-1,9,-1,-1,11,-1,-1],"loss_changes":[1.6713174E2,0E0,1.305431E2,0E0,2.1482986E2,9.682767E1,0E0,1.5508423E1,0E0,0E0,7.6932373E0,0E0,0E0],"parents":[2147483647,0,0,2,2,4,4,5,5,7,7,10,10],"right_children":[2,-1,4,-1,6,8,-1,10,-1,-1,12,-1,-1],"split_conditions":[8.3253807E-1,-5.1957812E-2,-2.5926304E-1,-4.8316773E-2,1.7577661E0,8.2985973E-1,-4.6127286E-2,-4.9607277E-1,-3.323263E-2,1.6923076E-1,-4.8289594E-1,2.1821861E-1,8.581273E-1],"split_indices":[6,0,2,0,6,4,0,1,0,0,5,0,0],"split_type":[0,0,0,0,0,0,0,0,0,0,0,0,0],"sum_hessian":[1.5272728E2,1.2278925E2,2.9938017E1,1.188843E1,1.8049587E1,1.0673553E1,7.3760333E0,8.938017E0,1.7355372E0,1.0413224E0,7.896694E0,1.0413224E0,6.855372E0],"tree_param":{"num_deleted":"0","num_feature":"7","num_nodes":"13","size_leaf_vector":"1"}},{"base_weights":[-2.3263787E-8,4.7329373E0,-5.200522E-2,9.0897876E-1,-4.5785643E-2],"categories":[],"categories_nodes":[],"categories_segments":[],"categories_sizes":[],"default_left":[0,0,0,0,0],"id":9,"left_children":[1,3,-1,-1,-1],"loss_changes":[3.8084177E2,3.505903E2,0E0,0E0,0E0],"parents":[2147483647,0,0,1,1],"right_children":[2,4,-1,-1,-1],"split_conditions":[-1.6738282E0,-4.3679744E-1,-5.200522E-2,9.0897876E-1,-4.5785643E-2],"split_indices":[4,2,0,0,0],"split_type":[0,0,0,0,0],"sum_hessian":[1.5272728E2,1.4318182E1,1.3840909E2,7.3760333E0,6.9421487E0],"tree_param":{"num_deleted":"0","num_feature":"7","num_nodes":"5","size_leaf_vector":"1"}},{"base_weights":[-2.3263787E-8,2.1932514E0,-5.1962208E-2,1.365488E-2,8.818591E-1,-4.9762446E-2,2.3903844E0,4.227612E-1,2.9490614E-1,7.125506E-2,-2.6720649E-2],"categories":[],"categories_nodes":[],"categories_segments":[],"categories_sizes":[],"default_left":[0,0,0,0,0,0,0,0,0,0,0],"id":10,"left_children":[1,3,-1,5,-1,-1,7,-1,9,-1,-1],"loss_changes":[1.7633679E2,4.2784552E2,0E0,2.9505049E1,0E0,0E0,1.5298147E1,0E0,9.140898E-1,0E0,0E0],"parents":[2147483647,0,0,1,1,3,3,6,6,8,8],"right_children":[2,4,-1,6,-1,-1,8,-1,10,-1,-1],"split_conditions":[-8.7737656E-1,2.0220338E-1,-5.1962208E-2,5.040422E-2,8.818591E-1,-4.9762446E-2,3.555131E-1,4.227612E-1,-9.917341E-1,7.125506E-2,-2.6720649E-2],"split_indices":[6,1,0,1,0,0,3,0,0,0,0],"split_type":[0,0,0,0,0,0,0,0,0,0,0],"sum_hessian":[1.5272728E2,2.8636364E1,1.2409091E2,2.2301653E1,6.3347106E0,1.9004133E1,3.2975206E0,1.214876E0,2.0826447E0,1.0413224E0,1.0413224E0],"tree_param":{"num_deleted":"0","num_feature":"7","num_nodes":"11","size_leaf_vector":"1"}},{"base_weights":[-2.3263787E-8,-5.1837403E-2,8.5597956E-1,4.6740465E0,-5.118689E-2,9.489074E-1,-3.455776E-1,-4.532294E-2,1.92233E-2],"categories":[],"categories_nodes":[],"categories_segments":[],"categories_sizes":[],"default_left":[0,0,0,0,0,0,0,0,0],"id":11,"left_children":[1,-1,3,5,-1,-1,7,-1,-1],"loss_changes":[6.8655205E1,0E0,3.0717712E2,3.7770868E2,0E0,0E0,5.8211493E-1,0E0,0E0],"parents":[2147483647,0,0,2,2,3,3,6,6],"right_children":[2,-1,4,6,-1,-1,8,-1,-1],"split_conditions":[2.5649038E-1,-5.1837403E-2,-4.3679744E-1,1.341903E0,-5.118689E-2,9.489074E-1,-3.6275145E-2,-4.532294E-2,1.92233E-2],"split_indices":[0,0,2,0,0,0,3,0,0],"split_type":[0,0,0,0,0,0,0,0,0],"sum_hessian":[1.5272728E2,9.536777E1,5.7359505E1,1.4491735E1,4.2867767E1,6.9421487E0,7.549587E0,6.421488E0,1.1280992E0],"tree_param":{"num_deleted":"0","num_feature":"7","num_nodes":"9","size_leaf_vector":"1"}},{"base_weights":[-2.3263787E-8,1.9472482E0,-5.1952094E-2,7.2419286E0,-4.1629997E-1,8.949152E-1,-3.3821378E-2,6.621359E-2,-5.0036985E-2],"categories":[],"categories_nodes":[],"categories_segments":[],"categories_sizes":[],"default_left":[0,0,0,0,0,0,0,0,0],"id":12,"left_children":[1,3,-1,5,7,-1,-1,-1,-1],"loss_changes":[1.5652771E2,4.1081332E2,0E0,1.338805E2,2.4596686E0,0E0,0E0,0E0,0E0],"parents":[2147483647,0,0,1,1,3,3,4,4],"right_children":[2,4,-1,6,8,-1,-1,-1,-1],"split_conditions":[-7.285839E-1,-4.353531E-1,-5.1952094E-2,-2.590806E-1,-2.8355393E-1,8.949152E-1,-3.3821378E-2,6.621359E-2,-5.0036985E-2],"split_indices":[4,1,0,0,1,0,0,0,0],"split_type":[0,0,0,0,0,0,0,0,0],"sum_hessian":[1.5272728E2,3.1586777E1,1.21140495E2,9.11157E0,2.2475206E1,7.289256E0,1.822314E0,1.1280992E0,2.1347107E1],"tree_param":{"num_deleted":"0","num_feature":"7","num_nodes":"9","size_leaf_vector":"1"}},{"base_weights":[-2.3263787E-8,-1.9899316E-1,5.5681114E0,5.1305974E-1,-2.773161E-1,8.087527E-1,-3.1935483E-2,4.0126973E-1,-5.1005334E-1,5.5910597E0,-3.632761E-1,-2.9129887E-1,-5.1883128E-2,7.3764706E-1,-2.7766991E-2,7.6153845E-1,-5.0697304E-2,2.2267206E-2,-4.2878564E-2,-3.629442E-2,2.1821861E-1],"categories":[],"categories_nodes":[],"categories_segments":[],"categories_sizes":[],"default_left":[0,0,0,0,0,0,0,0,0,0,0,0,0,0,0,0,0,0,0,0,0],"id":13,"left_children":[1,3,5,-1,7,-1,-1,9,11,13,15,17,-1,-1,-1,19,-1,-1,-1,-1,-1],"loss_changes":[1.7144029E2,6.3781887E1,8.177373E1,0E0,2.3606045E1,0E0,0E0,1.5439914E2,6.157112E-2,5.4352097E1,5.947704E0,5.585917E-1,0E0,0E0,0E0,7.6572742E0,0E0,0E0,0E0,0E0,0E0],"parents":[2147483647,0,0,1,1,2,2,4,4,7,7,8,8,9,9,10,10,11,11,15,15],"right_children":[2,4,6,-1,8,-1,-1,10,12,14,16,18,-1,-1,-1,20,-1,-1,-1,-1,-1],"split_conditions":[1.969664E0,-2.461299E0,-4.3679744E-1,5.1305974E-1,-4.401037E-1,8.087527E-1,-3.1935483E-2,-7.303525E-1,-3.447109E-1,2.0220338E-1,-5.923154E-1,-4.0499327E-1,-5.1883128E-2,7.3764706E-1,-2.7766991E-2,-2.0665641E-1,-5.0697304E-2,2.2267206E-2,-4.2878564E-2,-3.629442E-2,2.1821861E-1],"split_indices":[5,5,2,0,4,0,0,6,4,1,6,1,0,0,0,3,0,0,0,0,0],"split_type":[0,0,0,0,0,0,0,0,0,0,0,0,0,0,0,0,0,0,0,0,0],"sum_hessian":[1.5272728E2,1.4838843E2,4.338843E0,1.214876E0,1.4717355E2,2.7768595E0,1.5619835E0,3.7400826E1,1.0977273E2,3.9917355E0,3.3409092E1,5.553719E0,1.0421901E2,2.8636365E0,1.1280992E0,3.2975206E0,3.011157E1,1.0413224E0,4.512397E0,2.2561984E0,1.0413224E0],"tree_param":{"num_deleted":"0","num_feature":"7","num_nodes":"21","size_leaf_vector":"1"}},{"base_weights":[-2.3263787E-8,1.8163804E0,-5.1945604E-2,3.519087E0,-4.8999738E-2,-4.8316773E-2,9.5054036E-1],"categories":[],"categories_nodes":[],"categories_segments":[],"categories_sizes":[],"default_left":[0,0,0,0,0,0,0],"id":14,"left_children":[1,3,-1,5,-1,-1,-1],"loss_changes":[1.4598976E2,1.3685178E2,0E0,4.817879E2,0E0,0E0,0E0],"parents":[2147483647,0,0,1,1,3,3],"right_children":[2,4,-1,6,-1,-1,-1],"split_conditions":[-7.7679324E-1,-4.3679744E-1,-5.1945604E-2,-7.654138E-2,-4.8999738E-2,-4.8316773E-2,9.5054036E-1],"split_indices":[6,2,0,4,0,0,0],"split_type":[0,0,0,0,0,0,0],"sum_hessian":[1.5272728E2,3.3409092E1,1.19318184E2,1.8917355E1,1.4491735E1,1.188843E1,7.028926E0],"tree_param":{"num_deleted":"0","num_feature":"7","num_nodes":"7","size_leaf_vector":"1"}},{"base_weights":[-2.3263787E-8,9.2931986E-1,-5.2023467E-2],"categories":[],"categories_nodes":[],"categories_segments":[],"categories_sizes":[],"default_left":[0,0,0],"id":15,"left_children":[1,-1,-1],"loss_changes":[7.480512E2,0E0,0E0],"parents":[2147483647,0,0],"right_children":[2,-1,-1],"split_conditions":[-1.2873144E0,9.2931986E-1,-5.2023467E-2],"split_indices":[6,0,0],"split_type":[0,0,0],"sum_hessian":[1.5272728E2,7.2024794E0,1.455248E2],"tree_param":{"num_deleted":"0","num_feature":"7","num_nodes":"3","size_leaf_vector":"1"}},{"base_weights":[-2.3263787E-8,9.500281E-1,-4.7276348E-1,5.6646705E-1,-5.2010752E-2,3.1619433E-1,-4.344147E-2],"categories":[],"categories_nodes":[],"categories_segments":[],"categories_sizes":[],"default_left":[0,0,0,0,0,0,0],"id":16,"left_children":[1,-1,3,5,-1,-1,-1],"loss_changes":[6.949399E2,0E0,7.5465355E0,1.930032E1,0E0,0E0,0E0],"parents":[2147483647,0,0,2,2,3,3],"right_children":[2,-1,4,6,-1,-1,-1],"split_conditions":[-6.53784E-1,9.500281E-1,-6.3405794E-1,-4.0499327E-1,-5.2010752E-2,3.1619433E-1,-4.344147E-2],"split_indices":[2,0,2,1,0,0,0],"split_type":[0,0,0,0,0,0,0],"sum_hessian":[1.5272728E2,6.3347106E0,1.4639256E2,5.9008265E0,1.4049173E2,1.0413224E0,4.859504E0],"tree_param":{"num_deleted":"0","num_feature":"7","num_nodes":"7","size_leaf_vector":"1"}},{"base_weights":[-2.3263787E-8,-2.0030856E-1,6.3502183E0,-5.1927622E-2,8.449702E-1,2.2267206E-2,8.019037E-1,-5.02444E-2,3.5422437E0,8.8703996E-1,-4.56383E-2],"categories":[],"categories_nodes":[],"categories_segments":[],"categories_sizes":[],"default_left":[0,0,0,0,0,0,0,0,0,0,0],"id":17,"left_children":[1,3,5,-1,7,-1,-1,-1,9,-1,-1],"loss_changes":[1.9681355E2,5.0448906E1,4.6596603E1,0E0,1.3061879E2,0E0,0E0,0E0,2.5830334E2,0E0,0E0],"parents":[2147483647,0,0,1,1,2,2,4,4,8,8],"right_children":[2,4,6,-1,8,-1,-1,-1,10,-1,-1],"split_conditions":[2.2686367E0,8.387177E-1,4.123591E-2,-5.1927622E-2,-6.782318E-1,2.2267206E-2,8.019037E-1,-5.02444E-2,5.3616154E-1,8.8703996E-1,-4.56383E-2],"split_indices":[3,4,5,0,1,0,0,0,1,0,0],"split_type":[0,0,0,0,0,0,0,0,0,0,0],"sum_hessian":[1.5272728E2,1.4899586E2,3.731405E0,1.14545456E2,3.4450413E1,1.0413224E0,2.6900826E0,2.351653E1,1.0933885E1,4.1652894E0,6.768595E0],"tree_param":{"num_deleted":"0","num_feature":"7","num_nodes":"11","size_leaf_vector":"1"}},{"base_weights":[-2.3263787E-8,3.0755668E0,-1.721707E-1,-4.2407554E-2,6.949791E-1,7.967888E-1,-4.5770097E-1,1.8991502E-1,4.6373525E0,-9.3572795E-2,-5.184273E-2,-2.0912549E-1,1.4800456E0,7.328276E-1,-3.1935483E-2,-4.270724E-1,1.8610272E-1,-4.959314E-2,7.056043E-1,2.7888784E0,-3.882353E-2,2.2267206E-2,-4.8820224E-2,-4.2066723E-2,3.1619433E-1,-3.585398E-2,6.033582E-1],"categories":[],"categories_nodes":[],"categories_segments":[],"categories_sizes":[],"default_left":[0,0,0,0,0,0,0,0,0,0,0,0,0,0,0,0,0,0,0,0,0,0,0,0,0,0,0],"id":18,"left_children":[1,3,5,-1,-1,7,9,11,13,15,-1,17,19,-1,-1,21,-1,-1,23,25,-1,-1,-1,-1,-1,-1,-1],"loss_changes":[8.193156E1,1.14159706E2,4.0903305E1,0E0,0E0,7.769982E1,2.4680767E0,1.58347845E1,6.3133484E1,1.2194233E1,0E0,6.6224785E0,1.8805876E1,0E0,0E0,7.3436165E-1,0E0,0E0,1.8260677E1,4.6937656E1,0E0,0E0,0E0,0E0,0E0,0E0,0E0],"parents":[2147483647,0,0,1,1,2,2,5,5,6,6,7,7,8,8,9,9,11,11,12,12,15,15,18,18,19,19],"right_children":[2,4,6,-1,-1,8,10,12,14,16,-1,18,20,-1,-1,22,-1,-1,24,26,-1,-1,-1,-1,-1,-1,-1],"split_conditions":[-1.3820894E0,5.040422E-2,-5.035621E-1,-4.2407554E-2,6.949791E-1,9.6807164E-1,-1.8012325E-1,1.9700149E-1,-2.862159E-1,8.3253807E-1,-5.184273E-2,5.6652135E-1,-5.8470434E-1,7.328276E-1,-3.1935483E-2,-7.084759E-1,1.8610272E-1,-4.959314E-2,-2.1173496E0,-1.6738282E0,-3.882353E-2,2.2267206E-2,-4.8820224E-2,-4.2066723E-2,3.1619433E-1,-3.585398E-2,6.033582E-1],"split_indices":[5,1,4,0,0,6,4,6,0,6,0,1,0,0,0,5,0,0,4,4,0,0,0,0,0,0,0],"split_type":[0,0,0,0,0,0,0,0,0,0,0,0,0,0,0,0,0,0,0,0,0,0,0,0,0,0,0],"sum_hessian":[1.5272728E2,7.2024794E0,1.455248E2,4.252066E0,2.9504132E0,3.2714878E1,1.1280992E2,2.9157024E1,3.5578513E0,1.6487604E1,9.632231E1,2.2909092E1,6.247934E0,1.9958677E0,1.5619835E0,1.4752067E1,1.7355372E0,1.7789257E1,5.119835E0,3.3842976E0,2.8636365E0,1.0413224E0,1.3710744E1,4.078512E0,1.0413224E0,2.1694214E0,1.214876E0],"tree_param":{"num_deleted":"0","num_feature":"7","num_nodes":"27","size_leaf_vector":"1"}},{"base_weights":[-2.3263787E-8,1.3793513E0,-5.1031756E-1,4.4969997E0,-5.043705E-2,-1.517243E-3,-5.190883E-2,-4.4492844E-2,7.2739058E0,9.599684E-1,-3.671199E-2],"categories":[],"categories_nodes":[],"categories_segments":[],"categories_sizes":[],"default_left":[0,0,0,0,0,0,0,0,0,0,0],"id":19,"left_children":[1,3,5,7,-1,-1,-1,-1,9,-1,-1],"loss_changes":[1.08913635E2,2.4766309E2,4.8260117E-1,2.205971E2,0E0,0E0,0E0,0E0,1.8476245E2,0E0,0E0],"parents":[2147483647,0,0,1,1,2,2,3,3,8,8],"right_children":[2,4,6,8,-1,-1,-1,-1,10,-1,-1],"split_conditions":[-7.085916E-1,-1.2335962E-1,-6.782318E-1,-2.5926304E-1,-5.043705E-2,-1.517243E-3,-5.190883E-2,-4.4492844E-2,-2.590806E-1,9.599684E-1,-3.671199E-2],"split_indices":[1,3,1,2,0,0,0,0,0,0,0],"split_type":[0,0,0,0,0,0,0,0,0,0,0],"sum_hessian":[1.5272728E2,4.0785126E1,1.1194215E2,1.4838843E1,2.5946281E1,1.9958677E0,1.0994628E2,5.640496E0,9.198347E0,6.855372E0,2.3429751E0],"tree_param":{"num_deleted":"0","num_feature":"7","num_nodes":"11","size_leaf_vector":"1"}},{"base_weights":[-2.3263787E-8,-3.441733E-1,7.183411E0,-5.1996607E-2,1.6207818E0,9.065407E-1,-3.0449828E-2,-4.3025833E-2,2.8904254E0,4.1409883E0,-3.538874E-2,-3.4375E-2,6.498906E-1],"categories":[],"categories_nodes":[],"categories_segments":[],"categories_sizes":[],"default_left":[0,0,0,0,0,0,0,0,0,0,0,0,0],"id":20,"left_children":[1,3,5,-1,7,-1,-1,-1,9,11,-1,-1,-1],"loss_changes":[3.8253815E2,5.1845734E1,1.024541E2,0E0,3.3450413E1,0E0,0E0,0E0,3.298433E1,6.2360878E1,0E0,0E0,0E0],"parents":[2147483647,0,0,1,1,2,2,4,4,8,8,9,9],"right_children":[2,4,6,-1,8,-1,-1,-1,10,12,-1,-1,-1],"split_conditions":[2.1419435E0,1.4369038E0,6.136903E-1,-5.1996607E-2,-2.5926304E-1,9.065407E-1,-3.0449828E-2,-4.3025833E-2,6.008701E-1,3.86731E-1,-3.538874E-2,-3.4375E-2,6.498906E-1],"split_indices":[6,6,4,0,2,0,0,0,4,4,0,0,0],"split_type":[0,0,0,0,0,0,0,0,0,0,0,0,0],"sum_hessian":[1.5272728E2,1.466529E2,6.0743804E0,1.3528513E2,1.1367768E1,4.6859503E0,1.3884298E0,4.5991735E0,6.768595E0,4.6859503E0,2.0826447E0,1.9090909E0,2.7768595E0],"tree_param":{"num_deleted":"0","num_feature":"7","num_nodes":"13","size_leaf_vector":"1"}},{"base_weights":[-2.3263787E-8,1.8584352E0,-5.1947784E-2,-4.975104E-2,4.886174E0,9.6149844E-1,-4.5785643E-2],"categories":[],"categories_nodes":[],"categories_segments":[],"categories_sizes":[],"default_left":[0,0,0,0,0,0,0],"id":21,"left_children":[1,3,-1,-1,5,-1,-1],"loss_changes":[1.4937616E2,2.435445E2,0E0,0E0,3.8054196E2,0E0,0E0],"parents":[2147483647,0,0,1,1,4,4],"right_children":[2,4,-1,-1,6,-1,-1],"split_conditions":[-7.927123E-1,5.007082E-1,-5.1947784E-2,-4.975104E-2,2.7826402E-1,9.6149844E-1,-4.5785643E-2],"split_indices":[6,0,0,0,3,0,0],"split_type":[0,0,0,0,0,0,0],"sum_hessian":[1.5272728E2,3.2801655E1,1.1992562E2,1.8917355E1,1.3884297E1,6.9421487E0,6.9421487E0],"tree_param":{"num_deleted":"0","num_feature":"7","num_nodes":"7","size_leaf_vector":"1"}},{"base_weights":[-2.9468092E-3,-5.181402E-2,2.8206654E0,-4.5232028E-2,4.0666935E-1],"categories":[],"categories_nodes":[],"categories_segments":[],"categories_sizes":[],"default_left":[0,0,0,0,0],"id":22,"left_children":[1,-1,3,-1,-1],"loss_changes":[2.250845E2,0E0,9.920921E1,0E0,0E0],"parents":[2147483647,0,0,2,2],"right_children":[2,-1,4,-1,-1],"split_conditions":[2.0237932E0,-5.181402E-2,5.6689376E-1,-4.5232028E-2,4.0666935E-1],"split_indices":[1,0,4,0,0],"split_type":[0,0,0,0,0],"sum_hessian":[1.527238E2,1.2984831E2,2.2875492E1,6.4830976E0,1.6392395E1],"tree_param":{"num_deleted":"0","num_feature":"7","num_nodes":"5","size_leaf_vector":"1"}},{"base_weights":[-2.989439E-3,-5.1738698E-2,1.2648736E0,-5.036449E-2,4.0639648E-1],"categories":[],"categories_nodes":[],"categories_segments":[],"categories_sizes":[],"default_left":[0,0,0,0,0],"id":23,"left_children":[1,-1,3,-1,-1],"loss_changes":[1.0091748E2,0E0,2.2313022E2,0E0,0E0],"parents":[2147483647,0,0,2,2],"right_children":[2,-1,4,-1,-1],"split_conditions":[5.058017E-1,-5.1738698E-2,5.007082E-1,-5.036449E-2,4.0639648E-1],"split_indices":[1,0,0,0,0],"split_type":[0,0,0,0,0],"sum_hessian":[1.5273392E2,1.0907281E2,4.3661106E1,2.7258648E1,1.6402458E1],"tree_param":{"num_deleted":"0","num_feature":"7","num_nodes":"5","size_leaf_vector":"1"}},{"base_weights":[-1.552032E-4,7.198102E-1,-5.1631797E-2,-5.055976E-2,1.8491869E0,-4.7765125E-2,2.957252E0,-4.1067805E-2,3.621083E0,3.972622E0,-3.174009E-2,4.284589E-1,-2.7989909E-2],"categories":[],"categories_nodes":[],"categories_segments":[],"categories_sizes":[],"default_left":[0,0,0,0,0,0,0,0,0,0,0,0,0],"id":24,"left_children":[1,3,-1,-1,5,-1,7,-1,9,11,-1,-1,-1],"loss_changes":[5.7251736E1,8.9964386E1,0E0,0E0,8.8278885E1,0E0,5.2824097E1,0E0,2.7959076E1,2.478305E1,0E0,0E0,0E0],"parents":[2147483647,0,0,1,1,4,4,6,6,8,8,9,9],"right_children":[2,4,-1,-1,6,-1,8,-1,10,12,-1,-1,-1],"split_conditions":[-5.0255364E-1,-7.927123E-1,-5.1631797E-2,-5.055976E-2,2.950479E-2,-4.7765125E-2,-1.1770863E-1,-4.1067805E-2,-2.0638037E-2,1.6744511E0,-3.174009E-2,4.284589E-1,-2.7989909E-2],"split_indices":[6,6,0,0,5,0,3,0,4,5,0,0,0],"split_type":[0,0,0,0,0,0,0,0,0,0,0,0,0],"sum_hessian":[1.5206009E2,6.333009E1,8.8729996E1,3.0638603E1,3.2691486E1,1.0729475E1,2.1962011E1,3.678843E0,1.8283169E1,1.6777025E1,1.5061424E0,1.5623348E1,1.1536769E0],"tree_param":{"num_deleted":"0","num_feature":"7","num_nodes":"13","size_leaf_vector":"1"}},{"base_weights":[-2.9086906E-3,3.60002E0,-5.1826548E-2,-3.465992E-2,4.067338E-1],"categories":[],"categories_nodes":[],"categories_segments":[],"categories_sizes":[],"default_left":[0,0,0,0,0],"id":25,"left_children":[1,3,-1,-1,-1],"loss_changes":[2.8727994E2,3.7118378E1,0E0,0E0,0E0],"parents":[2147483647,0,0,1,1],"right_children":[2,4,-1,-1,-1],"split_conditions":[-2.2905192E0,-4.3679744E-1,-5.1826548E-2,-3.465992E-2,4.067338E-1],"split_indices":[4,2,0,0,0],"split_type":[0,0,0,0,0],"sum_hessian":[1.5271346E2,1.8361343E1,1.3435211E2,1.9713259E0,1.6390017E1],"tree_param":{"num_deleted":"0","num_feature":"7","num_nodes":"5","size_leaf_vector":"1"}},{"base_weights":[3.130145E-3,-2.4268708E-1,3.8345554E0,-5.0029725E-1,7.677513E-1,6.759469E-2,4.1758838E-1,1.9319002E-2,-5.088186E-1,-4.957179E-2,3.000705E0,-5.174595E-2,-4.7963016E-2,4.1347694E-1,-3.7916165E-2,-2.85821E-2,2.3756227E-2],"categories":[],"categories_nodes":[],"categories_segments":[],"categories_sizes":[],"default_left":[0,0,0,0,0,0,0,0,0,0,0,0,0,0,0,0,0],"id":26,"left_children":[1,3,5,7,9,-1,-1,-1,11,-1,13,-1,15,-1,-1,-1,-1],"loss_changes":[1.443485E2,3.7876434E1,7.1394196E0,7.801266E-1,8.5155174E1,0E0,0E0,0E0,4.3016624E-1,0E0,4.318747E1,0E0,2.855635E-1,0E0,0E0,0E0,0E0],"parents":[2147483647,0,0,1,1,2,2,3,3,4,4,8,8,10,10,12,12],"right_children":[2,4,6,8,10,-1,-1,-1,12,-1,14,-1,16,-1,-1,-1,-1],"split_conditions":[1.0497755E0,8.78099E-1,5.333728E-1,-1.4068677E0,4.5119372E-1,6.759469E-2,4.1758838E-1,1.9319002E-2,8.66175E-1,-4.957179E-2,-6.782318E-1,-5.174595E-2,2.4593973E-1,4.1347694E-1,-3.7916165E-2,-2.85821E-2,2.3756227E-2],"split_indices":[4,4,6,1,6,0,0,0,4,0,1,0,3,0,0,0,0],"split_type":[0,0,0,0,0,0,0,0,0,0,0,0,0,0,0,0,0],"sum_hessian":[1.5127574E2,1.430355E2,8.240237E0,1.14379456E2,2.865605E1,1.0942774E0,7.14596E0,1.1253412E0,1.1325411E2,1.8797745E1,9.858303E0,1.1104915E2,2.2049615E0,7.214299E0,2.644004E0,1.2023245E0,1.002637E0],"tree_param":{"num_deleted":"0","num_feature":"7","num_nodes":"17","size_leaf_vector":"1"}},{"base_weights":[-2.8198864E-3,-5.1706202E-2,1.0120751E0,3.655607E0,-5.0671697E-2,-3.364197E-2,4.092422E-1],"categories":[],"categories_nodes":[],"categories_segments":[],"categories_sizes":[],"default_left":[0,0,0,0,0,0,0],"id":27,"left_children":[1,-1,3,5,-1,-1,-1],"loss_changes":[8.074254E1,0E0,2.1074615E2,3.4694275E1,0E0,0E0,0E0],"parents":[2147483647,0,0,2,2,3,3],"right_children":[2,-1,4,6,-1,-1,-1],"split_conditions":[7.9919666E-1,-5.1706202E-2,-2.0638037E-2,1.1469438E-1,-5.0671697E-2,-3.364197E-2,4.092422E-1],"split_indices":[0,0,4,6,0,0,0],"split_type":[0,0,0,0,0,0,0],"sum_hessian":[1.527056E2,1.0167694E2,5.1028664E1,1.8106499E1,3.2922165E1,1.808506E0,1.6297993E1],"tree_param":{"num_deleted":"0","num_feature":"7","num_nodes":"7","size_leaf_vector":"1"}},{"base_weights":[4.4354876E-3,-5.1788706E-2,2.1732092E0,4.3963323E0,-4.8582036E-2,4.576977E-1,1.0978929E-1],"categories":[],"categories_nodes":[],"categories_segments":[],"categories_sizes":[],"default_left":[0,0,0,0,0,0,0],"id":28,"left_children":[1,-1,3,5,-1,-1,-1],"loss_changes":[1.7325192E2,0E0,1.7761093E2,4.667511E0,0E0,0E0,0E0],"parents":[2147483647,0,0,2,2,3,3],"right_children":[2,-1,4,6,-1,-1,-1],"split_conditions":[1.341903E0,-5.1788706E-2,-4.3679744E-1,-1.0337537E-1,-4.8582036E-2,4.576977E-1,1.0978929E-1],"split_indices":[0,0,2,6,0,0,0],"split_type":[0,0,0,0,0,0,0],"sum_hessian":[1.5094786E2,1.2226342E2,2.8684437E1,1.5266927E1,1.3417511E1,1.41067295E1,1.160197E0],"tree_param":{"num_deleted":"0","num_feature":"7","num_nodes":"7","size_leaf_vector":"1"}},{"base_weights":[-2.9365981E-3,-5.181402E-2,2.820987E0,4.06773E-1,-4.52341E-2],"categories":[],"categories_nodes":[],"categories_segments":[],"categories_sizes":[],"default_left":[0,0,0,0,0],"id":29,"left_children":[1,-1,3,-1,-1],"loss_changes":[2.251106E2,0E0,9.926698E1,0E0,0E0],"parents":[2147483647,0,0,2,2],"right_children":[2,-1,4,-1,-1],"split_conditions":[2.0237932E0,-5.181402E-2,5.6689376E-1,4.06773E-1,-4.52341E-2],"split_indices":[1,0,4,0,0],"split_type":[0,0,0,0,0],"sum_hessian":[1.5272165E2,1.2984831E2,2.287333E1,1.6388573E1,6.4847574E0],"tree_param":{"num_deleted":"0","num_feature":"7","num_nodes":"5","size_leaf_vector":"1"}},{"base_weights":[1.105988E-3,-5.1757395E-2,1.5720335E0,-4.7955148E-2,2.4424696E0,3.4733686E0,-4.567085E-2,3.83473E0,-3.2615386E-2,6.461158E-2,4.0064435E0,6.513721E-2,4.20063E-1],"categories":[],"categories_nodes":[],"categories_segments":[],"categories_sizes":[],"default_left":[0,0,0,0,0,0,0,0,0,0,0,0,0],"id":30,"left_children":[1,-1,3,-1,5,7,-1,9,-1,-1,11,-1,-1],"loss_changes":[1.2533505E2,0E0,6.935431E1,0E0,8.219789E1,2.8728394E1,0E0,7.460327E0,0E0,0E0,8.484772E0,0E0,0E0],"parents":[2147483647,0,0,2,2,4,4,5,5,7,7,10,10],"right_children":[2,-1,4,-1,6,8,-1,10,-1,-1,12,-1,-1],"split_conditions":[8.3253807E-1,-5.1757395E-2,-2.5926304E-1,-4.7955148E-2,1.7577661E0,8.2985973E-1,-4.567085E-2,-4.8885962E-1,-3.2615386E-2,6.461158E-2,-2.0638037E-2,6.513721E-2,4.20063E-1],"split_indices":[6,0,2,0,6,4,0,3,0,0,4,0,0],"split_type":[0,0,0,0,0,0,0,0,0,0,0,0,0],"sum_hessian":[1.518229E2,1.1464169E2,3.7181213E1,1.1209621E1,2.597159E1,1.9012878E1,6.958713E0,1.73532E1,1.6596775E0,1.1301315E0,1.6223068E1,1.1258283E0,1.509724E1],"tree_param":{"num_deleted":"0","num_feature":"7","num_nodes":"13","size_leaf_vector":"1"}},{"base_weights":[-2.138841E-3,2.8937523E0,-5.033724E-1,4.2504463E-1,-4.5232803E-2,5.3512253E-2,-5.1812567E-2],"categories":[],"categories_nodes":[],"categories_segments":[],"categories_sizes":[],"default_left":[0,0,0,0,0,0,0],"id":31,"left_children":[1,3,5,-1,-1,-1,-1],"loss_changes":[2.243797E2,1.0546307E2,2.2961578E0,0E0,0E0,0E0,0E0],"parents":[2147483647,0,0,1,1,2,2],"right_children":[2,4,6,-1,-1,-1,-1],"split_conditions":[-2.0865924E0,-4.3679744E-1,-1.6738282E0,4.2504463E-1,-4.5232803E-2,5.3512253E-2,-5.1812567E-2],"split_indices":[4,2,4,0,0,0,0],"split_type":[0,0,0,0,0,0,0],"sum_hessian":[1.5257928E2,2.1808247E1,1.3077104E2,1.5324524E1,6.4837227E0,1.3377048E0,1.2943333E2],"tree_param":{"num_deleted":"0","num_feature":"7","num_nodes":"7","size_leaf_vector":"1"}},{"base_weights":[1.5626285E-3,1.6586652E0,-5.176608E-2,-4.9423862E-2,3.7041883E0,4.249348E0,-3.675297E-2,-2.7230684E-2,4.573438E-1],"categories":[],"categories_nodes":[],"categories_segments":[],"categories_sizes":[],"default_left":[0,0,0,0,0,0,0,0,0],"id":32,"left_children":[1,3,-1,-1,5,7,-1,-1,-1],"loss_changes":[1.3222635E2,1.6329298E2,0E0,0E0,4.3556274E1,2.5812256E1,0E0,0E0,0E0],"parents":[2147483647,0,0,1,1,4,4,5,5],"right_children":[2,4,-1,-1,6,8,-1,-1,-1],"split_conditions":[-8.7737656E-1,5.040422E-2,-5.176608E-2,-4.9423862E-2,-7.654138E-2,-5.140439E-1,-3.675297E-2,-2.7230684E-2,4.573438E-1],"split_indices":[6,1,0,0,4,4,0,0,0],"split_type":[0,0,0,0,0,0,0,0,0],"sum_hessian":[1.5168098E2,3.5664177E1,1.16016815E2,1.7745499E1,1.7918678E1,1.5764371E1,2.1543076E0,1.0650268E0,1.4699344E1],"tree_param":{"num_deleted":"0","num_feature":"7","num_nodes":"9","size_leaf_vector":"1"}},{"base_weights":[-2.6179478E-3,-5.163608E-2,7.171737E-1,2.7462277E0,-5.093328E-2,4.004792E0,-4.5554034E-2,4.1110831E-1,1.184058E-1],"categories":[],"categories_nodes":[],"categories_segments":[],"categories_sizes":[],"default_left":[0,0,0,0,0,0,0,0,0],"id":33,"left_children":[1,-1,3,5,-1,7,-1,-1,-1],"loss_changes":[5.7193596E1,0E0,1.6170966E2,1.0024803E2,0E0,4.1958618E-1,0E0,0E0,0E0],"parents":[2147483647,0,0,2,2,3,3,5,5],"right_children":[2,-1,4,6,-1,8,-1,-1,-1],"split_conditions":[2.5649038E-1,-5.163608E-2,-4.3679744E-1,1.3690382E0,-5.093328E-2,5.9147805E-1,-4.5554034E-2,4.1110831E-1,1.184058E-1],"split_indices":[0,0,2,0,0,5,0,0,0],"split_type":[0,0,0,0,0,0,0,0,0],"sum_hessian":[1.5266455E2,8.924768E1,6.3416866E1,2.342499E1,3.9991875E1,1.6635164E1,6.789826E0,1.5590241E1,1.044923E0],"tree_param":{"num_deleted":"0","num_feature":"7","num_nodes":"9","size_leaf_vector":"1"}},{"base_weights":[-1.4969654E-3,1.4630675E0,-5.175376E-2,3.5253286E0,-4.9800612E-2,4.000169E0,-3.525372E-2,-3.1241054E-2,4.361106E-1],"categories":[],"categories_nodes":[],"categories_segments":[],"categories_sizes":[],"default_left":[0,0,0,0,0,0,0,0,0],"id":34,"left_children":[1,3,-1,5,-1,7,-1,-1,-1],"loss_changes":[1.1672106E2,1.6449149E2,0E0,3.7753677E1,0E0,2.8859314E1,0E0,0E0,0E0],"parents":[2147483647,0,0,1,1,3,3,5,5],"right_children":[2,4,-1,6,-1,8,-1,-1,-1],"split_conditions":[-7.285839E-1,-3.7463343E-1,-5.175376E-2,-2.590806E-1,-4.9800612E-2,-4.565235E-1,-3.525372E-2,-3.1241054E-2,4.361106E-1],"split_indices":[4,1,0,0,0,2,0,0,0],"split_type":[0,0,0,0,0,0,0,0,0],"sum_hessian":[1.5243707E2,3.9238865E1,1.1319821E2,1.8737206E1,2.050166E1,1.6665049E1,2.0721557E0,1.297429E0,1.536762E1],"tree_param":{"num_deleted":"0","num_feature":"7","num_nodes":"9","size_leaf_vector":"1"}},{"base_weights":[7.917774E-3,-1.8643542E-1,3.4011228E0,3.02327E0,-2.847611E-1,4.258337E-1,-3.1154558E-2,4.3210468E-1,-2.8348956E-2,3.3229914E-1,-5.0745E-1,3.3037455E0,-3.4840283E-1,-2.815721E-1,-5.167928E-2,3.983683E-1,-2.7133573E-2,7.287219E-1,-5.037277E-2,2.32542E-2,-4.2397458E-2,-3.6642563E-2,2.1464427E-1],"categories":[],"categories_nodes":[],"categories_segments":[],"categories_sizes":[],"default_left":[0,0,0,0,0,0,0,0,0,0,0,0,0,0,0,0,0,0,0,0,0,0,0],"id":35,"left_children":[1,3,5,7,9,-1,-1,-1,-1,11,13,15,17,19,-1,-1,-1,21,-1,-1,-1,-1,-1],"loss_changes":[1.0031302E2,4.627759E1,2.755178E1,1.9950603E1,1.948111E1,0E0,0E0,0E0,0E0,7.775849E1,7.3265076E-2,1.8472504E1,5.6739435E0,5.609006E-1,0E0,0E0,0E0,7.627875E0,0E0,0E0,0E0,0E0,0E0],"parents":[2147483647,0,0,1,1,2,2,3,3,4,4,9,9,10,10,11,11,12,12,13,13,17,17],"right_children":[2,4,6,8,10,-1,-1,-1,-1,12,14,16,18,20,-1,-1,-1,22,-1,-1,-1,-1,-1],"split_conditions":[1.969664E0,-2.285563E0,-4.3679744E-1,-5.5662227E-1,-4.401037E-1,4.258337E-1,-3.1154558E-2,4.3210468E-1,-2.8348956E-2,-7.303525E-1,-3.447109E-1,2.0220338E-1,-5.923154E-1,-4.436316E-1,-5.167928E-2,3.983683E-1,-2.7133573E-2,1.17351115E-2,-5.037277E-2,2.32542E-2,-4.2397458E-2,-3.6642563E-2,2.1464427E-1],"split_indices":[5,5,2,6,4,0,0,0,0,6,4,1,6,5,0,0,0,3,0,0,0,0,0],"split_type":[0,0,0,0,0,0,0,0,0,0,0,0,0,0,0,0,0,0,0,0,0,0,0],"sum_hessian":[1.5014772E2,1.4290744E2,7.240278E0,3.3634887E0,1.3954395E2,5.7627482E0,1.4775298E0,2.1952178E0,1.1682708E0,3.6874435E1,1.0266952E2,6.154585E0,3.071985E1,5.3147335E0,9.735478E1,5.075075E0,1.0795101E0,3.406354E0,2.7313496E1,1.0154986E0,4.299235E0,2.3401759E0,1.0661781E0],"tree_param":{"num_deleted":"0","num_feature":"7","num_nodes":"23","size_leaf_vector":"1"}},{"base_weights":[-2.8680386E-3,1.3721695E0,-5.1749196E-2,2.2694085E0,-4.866584E-2,-4.790495E-2,4.0300867E-1],"categories":[],"categories_nodes":[],"categories_segments":[],"categories_sizes":[],"default_left":[0,0,0,0,0,0,0],"id":36,"left_children":[1,3,-1,5,-1,-1,-1],"loss_changes":[1.0948972E2,7.138384E1,0E0,1.4031558E2,0E0,0E0,0E0],"parents":[2147483647,0,0,1,1,3,3],"right_children":[2,4,-1,6,-1,-1,-1],"split_conditions":[-7.7679324E-1,-2.590806E-1,-5.1749196E-2,-7.654138E-2,-4.866584E-2,-4.790495E-2,4.0300867E-1],"split_indices":[6,0,0,4,0,0,0],"split_type":[0,0,0,0,0,0,0],"sum_hessian":[1.5272452E2,4.1138657E1,1.1158585E2,2.7596972E1,1.3541685E1,1.1059991E1,1.6536982E1],"tree_param":{"num_deleted":"0","num_feature":"7","num_nodes":"7","size_leaf_vector":"1"}},{"base_weights":[-2.324122E-3,4.024631E0,-5.1830985E-2,1.078583E-1,4.169402E-1],"categories":[],"categories_nodes":[],"categories_segments":[],"categories_sizes":[],"default_left":[0,0,0,0,0],"id":37,"left_children":[1,3,-1,-1,-1],"loss_changes":[3.212411E2,2.9922485E0,0E0,0E0,0E0],"parents":[2147483647,0,0,1,1],"right_children":[2,4,-1,-1,-1],"split_conditions":[-1.2873144E0,8.387177E-1,-5.1830985E-2,1.078583E-1,4.169402E-1],"split_indices":[6,4,0,0,0],"split_type":[0,0,0,0,0],"sum_hessian":[1.525986E2,1.6559769E1,1.3603883E2,1.1714453E0,1.5388324E1],"tree_param":{"num_deleted":"0","num_feature":"7","num_nodes":"5","size_leaf_vector":"1"}},{"base_weights":[-5.071975E-4,4.0828392E-1,-4.6784666E-1,5.531047E-1,-5.1817086E-2,-4.3578066E-2,3.2232234E-1],"categories":[],"categories_nodes":[],"categories_segments":[],"categories_sizes":[],"default_left":[0,0,0,0,0,0,0],"id":38,"left_children":[1,-1,3,5,-1,-1,-1],"loss_changes":[2.9412408E2,0E0,7.392185E0,1.9835976E1,0E0,0E0,0E0],"parents":[2147483647,0,0,2,2,3,3],"right_children":[2,-1,4,6,-1,-1,-1],"split_conditions":[-6.53784E-1,4.0828392E-1,-6.3405794E-1,7.583516E-1,-5.1817086E-2,-4.3578066E-2,3.2232234E-1],"split_indices":[2,0,2,4,0,0,0],"split_type":[0,0,0,0,0,0,0],"sum_hessian":[1.5212718E2,1.4828432E1,1.3729875E2,5.980409E0,1.3131834E2,4.9747796E0,1.0056292E0],"tree_param":{"num_deleted":"0","num_feature":"7","num_nodes":"7","size_leaf_vector":"1"}},{"base_weights":[2.971122E-3,-1.9145975E-1,3.7097437E0,-5.172943E-2,7.265687E-1,2.2306593E-2,4.2255163E-1,-4.9948107E-2,2.3881264E0,4.1873524E-1,-4.5080725E-2],"categories":[],"categories_nodes":[],"categories_segments":[],"categories_sizes":[],"default_left":[0,0,0,0,0,0,0,0,0,0,0],"id":39,"left_children":[1,3,5,-1,7,-1,-1,-1,9,-1,-1],"loss_changes":[1.1048274E2,4.394983E1,1.2796829E1,0E0,7.977602E1,0E0,0E0,0E0,8.6431046E1,0E0,0E0],"parents":[2147483647,0,0,1,1,2,2,4,4,8,8],"right_children":[2,4,6,-1,8,-1,-1,-1,10,-1,-1],"split_conditions":[2.2686367E0,8.387177E-1,4.123591E-2,-5.172943E-2,-6.782318E-1,2.2306593E-2,4.2255163E-1,-4.9948107E-2,5.3616154E-1,4.1873524E-1,-4.5080725E-2],"split_indices":[3,4,5,0,1,0,0,0,1,0,0],"split_type":[0,0,0,0,0,0,0,0,0,0,0],"sum_hessian":[1.5131136E2,1.4467128E2,6.6400757E0,1.0709627E2,3.7575012E1,1.0402648E0,5.5998106E0,2.2023468E1,1.5551545E1,9.228097E0,6.3234477E0],"tree_param":{"num_deleted":"0","num_feature":"7","num_nodes":"11","size_leaf_vector":"1"}},{"base_weights":[9.827689E-3,1.0564398E0,-4.0709147E-1,-2.1567187E-1,2.5720203E0,1.4724103E0,-4.608549E-1,-4.933789E-2,4.2356184E-1,-4.2690348E-2,3.4769206E0,-2.8097272E-2,2.5803313E-1,-1.2498655E-1,-5.1634353E-2,-4.3718472E-2,2.1638921E-1,-4.173596E-2,4.8641768E-1,-4.170271E-1,1.3554807E-1,2.1782653E-2,-4.8325565E-2],"categories":[],"categories_nodes":[],"categories_segments":[],"categories_sizes":[],"default_left":[0,0,0,0,0,0,0,0,0,0,0,0,0,0,0,0,0,0,0,0,0,0,0],"id":40,"left_children":[1,3,5,7,9,11,13,-1,15,-1,17,-1,-1,19,-1,-1,-1,-1,-1,21,-1,-1,-1],"loss_changes":[6.6191124E1,8.386335E1,1.1641926E1,4.5430546E0,5.5203934E1,7.0494E0,1.915453E0,0E0,1.2828546E1,0E0,8.477432E1,0E0,0E0,7.648438E0,0E0,0E0,0E0,0E0,0E0,7.127466E-1,0E0,0E0,0E0],"parents":[2147483647,0,0,1,1,2,2,3,3,4,4,5,5,6,6,8,8,10,10,13,13,19,19],"right_children":[2,4,6,8,10,12,14,-1,16,-1,18,-1,-1,20,-1,-1,-1,-1,-1,22,-1,-1,-1],"split_conditions":[-4.9474907E-1,-5.885241E-2,-1.2367209E0,-2.2080193E-1,2.004439E-2,2.004439E-2,-1.8012325E-1,-4.933789E-2,2.3256321E-1,-4.2690348E-2,-2.0865924E0,-2.8097272E-2,2.5803313E-1,8.3253807E-1,-5.1634353E-2,-4.3718472E-2,2.1638921E-1,-4.173596E-2,4.8641768E-1,-7.084759E-1,1.3554807E-1,2.1782653E-2,-4.8325565E-2],"split_indices":[4,6,5,6,1,1,4,0,1,0,4,0,0,6,0,0,0,0,0,5,0,0,0],"split_type":[0,0,0,0,0,0,0,0,0,0,0,0,0,0,0,0,0,0,0,0,0,0,0],"sum_hessian":[1.4970622E2,4.221015E1,1.0749608E2,2.3414635E1,1.8795517E1,2.2556188E0,1.05240456E2,1.6482285E1,6.932349E0,4.479215E0,1.4316302E1,1.1624055E0,1.0932133E0,1.5382701E1,8.985776E1,5.139303E0,1.7930459E0,3.9439795E0,1.0372322E1,1.3448193E1,1.9345089E0,1.0541652E0,1.2394027E1],"tree_param":{"num_deleted":"0","num_feature":"7","num_nodes":"23","size_leaf_vector":"1"}},{"base_weights":[-3.005371E-3,1.088475E0,-5.077762E-1,2.671945E0,-5.0145317E-2,-8.1937556E-4,-5.1711183E-2,-4.392599E-2,3.5445356E0,4.0668637E-1,-3.593802E-2],"categories":[],"categories_nodes":[],"categories_segments":[],"categories_sizes":[],"default_left":[0,0,0,0,0,0,0,0,0,0,0],"id":41,"left_children":[1,3,5,7,-1,-1,-1,-1,9,-1,-1],"loss_changes":[8.5262634E1,1.24547226E2,4.8927307E-1,6.855025E1,0E0,0E0,0E0,0E0,4.098413E1,0E0,0E0],"parents":[2147483647,0,0,1,1,2,2,3,3,8,8],"right_children":[2,4,6,8,-1,-1,-1,-1,10,-1,-1],"split_conditions":[-7.085916E-1,-1.2335962E-1,-6.782318E-1,-2.5926304E-1,-5.0145317E-2,-8.1937556E-4,-5.1711183E-2,-4.392599E-2,-2.590806E-1,4.0668637E-1,-3.593802E-2],"split_indices":[1,3,1,2,0,0,0,0,0,0,0],"split_type":[0,0,0,0,0,0,0,0,0,0,0],"sum_hessian":[1.527532E2,4.7938354E1,1.0481485E2,2.367699E1,2.4261364E1,1.9571764E0,1.0285767E2,5.2948613E0,1.838213E1,1.6176094E1,2.2060347E0],"tree_param":{"num_deleted":"0","num_feature":"7","num_nodes":"11","size_leaf_vector":"1"}},{"base_weights":[2.3246962E-3,-5.1800765E-2,2.5423105E0,-4.429489E-2,3.3714843E0,-3.9547246E-2,4.0678377E0,4.2950764E-1,2.2439038E-2],"categories":[],"categories_nodes":[],"categories_segments":[],"categories_sizes":[],"default_left":[0,0,0,0,0,0,0,0,0],"id":42,"left_children":[1,-1,3,-1,5,-1,7,-1,-1],"loss_changes":[2.0285748E2,0E0,6.609129E1,0E0,5.548842E1,0E0,1.425415E1,0E0,0E0],"parents":[2147483647,0,0,2,2,4,4,6,6],"right_children":[2,-1,4,-1,6,-1,8,-1,-1],"split_conditions":[1.4369038E0,-5.1800765E-2,2.2935508E-1,-4.429489E-2,3.86731E-1,-3.9547246E-2,6.046292E-1,4.2950764E-1,2.2439038E-2],"split_indices":[6,0,0,0,4,0,4,0,0],"split_type":[0,0,0,0,0,0,0,0,0],"sum_hessian":[1.5149315E2,1.2639615E2,2.5097004E1,5.5567904E0,1.9540213E1,3.1160226E0,1.642419E1,1.5396394E1,1.027797E0],"tree_param":{"num_deleted":"0","num_feature":"7","num_nodes":"9","size_leaf_vector":"1"}},{"base_weights":[-3.100383E-3,1.3951619E0,-5.1751208E-2,-4.943028E-2,2.8176064E0,4.0670976E-1,-4.526113E-2],"categories":[],"categories_nodes":[],"categories_segments":[],"categories_sizes":[],"default_left":[0,0,0,0,0,0,0],"id":43,"left_children":[1,3,-1,-1,5,-1,-1],"loss_changes":[1.113243E2,1.1326977E2,0E0,0E0,9.9487564E1,0E0,0E0],"parents":[2147483647,0,0,1,1,4,4],"right_children":[2,4,-1,-1,6,-1,-1],"split_conditions":[-7.927123E-1,5.007082E-1,-5.1751208E-2,-4.943028E-2,2.7826402E-1,4.0670976E-1,-4.526113E-2],"split_indices":[6,0,0,0,3,0,0],"split_type":[0,0,0,0,0,0,0],"sum_hessian":[1.5276755E2,4.0626194E1,1.1214135E2,1.7728943E1,2.289725E1,1.6390903E1,6.506346E0],"tree_param":{"num_deleted":"0","num_feature":"7","num_nodes":"7","size_leaf_vector":"1"}},{"base_weights":[-3.4374068E-3,-5.1648647E-2,2.1124637E0,-4.476529E-2,2.7916583E-1],"categories":[],"categories_nodes":[],"categories_segments":[],"categories_sizes":[],"default_left":[0,0,0,0,0],"id":44,"left_children":[1,-1,3,-1,-1],"loss_changes":[1.6611887E2,0E0,5.3177475E1,0E0,0E0],"parents":[2147483647,0,0,2,2],"right_children":[2,-1,4,-1,-1],"split_conditions":[2.0237932E0,-5.1648647E-2,5.6689376E-1,-4.476529E-2,2.7916583E-1],"split_indices":[1,0,4,0,0],"split_type":[0,0,0,0,0],"sum_hessian":[1.5102075E2,1.2215689E2,2.8863857E1,6.1234365E0,2.2740421E1],"tree_param":{"num_deleted":"0","num_feature":"7","num_nodes":"5","size_leaf_vector":"1"}},{"base_weights":[-3.5407618E-3,-5.1569205E-2,1.0705158E0,-5.0118078E-2,2.788626E-1],"categories":[],"categories_nodes":[],"categories_segments":[],"categories_sizes":[],"default_left":[0,0,0,0,0],"id":45,"left_children":[1,-1,3,-1,-1],"loss_changes":[8.4187035E1,0E0,1.3483792E2,0E0,0E0],"parents":[2147483647,0,0,2,2],"right_children":[2,-1,4,-1,-1],"split_conditions":[5.058017E-1,-5.1569205E-2,5.007082E-1,-5.0118078E-2,2.788626E-1],"split_indices":[1,0,0,0,0],"split_type":[0,0,0,0,0],"sum_hessian":[1.5104164E2,1.0262566E2,4.841598E1,2.5655283E1,2.27607E1],"tree_param":{"num_deleted":"0","num_feature":"7","num_nodes":"5","size_leaf_vector":"1"}},{"base_weights":[-1.2892302E-3,6.3499856E-1,-5.1456135E-2,-5.032443E-2,1.4827331E0,-4.7404047E-2,2.1781828E0,-4.051895E-2,2.545447E0,2.7285135E0,-3.113514E-2,2.8849623E-1,-2.7483458E-2],"categories":[],"categories_nodes":[],"categories_segments":[],"categories_sizes":[],"default_left":[0,0,0,0,0,0,0,0,0,0,0,0,0],"id":46,"left_children":[1,3,-1,-1,5,-1,7,-1,9,11,-1,-1,-1],"loss_changes":[4.9852455E1,6.651227E1,0E0,0E0,5.4536057E1,0E0,2.8722458E1,0E0,1.4285248E1,1.2185287E1,0E0,0E0,0E0],"parents":[2147483647,0,0,1,1,4,4,6,6,8,8,9,9],"right_children":[2,4,-1,-1,6,-1,8,-1,10,12,-1,-1,-1],"split_conditions":[-5.0255364E-1,-7.927123E-1,-5.1456135E-2,-5.032443E-2,2.950479E-2,-4.7404047E-2,-1.1770863E-1,-4.051895E-2,-2.0638037E-2,1.6744511E0,-3.113514E-2,2.8849623E-1,-2.7483458E-2],"split_indices":[6,6,0,0,5,0,3,0,4,5,0,0,0],"split_type":[0,0,0,0,0,0,0,0,0,0,0,0,0],"sum_hessian":[1.506455E2,6.715649E1,8.3489006E1,2.8839886E1,3.8316597E1,1.0130623E1,2.8185974E1,3.495442E0,2.4690533E1,2.3245825E1,1.4447081E0,2.2132336E1,1.1134881E0],"tree_param":{"num_deleted":"0","num_feature":"7","num_nodes":"13","size_leaf_vector":"1"}},{"base_weights":[-3.3119544E-3,2.5513434E0,-5.166197E-2,-3.3989776E-2,2.7941146E-1],"categories":[],"categories_nodes":[],"categories_segments":[],"categories_sizes":[],"default_left":[0,0,0,0,0],"id":47,"left_children":[1,3,-1,-1,-1],"loss_changes":[2.006288E2,1.8917542E1,0E0,0E0,0E0],"parents":[2147483647,0,0,1,1],"right_children":[2,4,-1,-1,-1],"split_conditions":[-2.2905192E0,-4.3679744E-1,-5.166197E-2,-3.3989776E-2,2.7941146E-1],"split_indices":[4,2,0,0,0],"split_type":[0,0,0,0,0],"sum_hessian":[1.5099194E2,2.4598501E1,1.2639344E2,1.8744918E0,2.272401E1],"tree_param":{"num_deleted":"0","num_feature":"7","num_nodes":"5","size_leaf_vector":"1"}},{"base_weights":[4.5790602E-3,-2.3495938E-1,2.716436E0,-4.9759313E-1,6.818823E-1,6.350918E-2,2.8770784E-1,1.9017493E-2,-5.0660807E-1,-4.9288925E-2,2.2380078E0,-5.1575728E-2,-4.2836905E-2,2.8625953E-1,-3.73622E-2,-2.8137354E-2,2.359449E-2],"categories":[],"categories_nodes":[],"categories_segments":[],"categories_sizes":[],"default_left":[0,0,0,0,0,0,0,0,0,0,0,0,0,0,0,0,0],"id":48,"left_children":[1,3,5,7,9,-1,-1,-1,11,-1,13,-1,15,-1,-1,-1,-1],"loss_changes":[9.836062E1,3.3844986E1,2.2817001E0,7.705574E-1,5.851562E1,0E0,0E0,0E0,4.3449593E-1,0E0,2.3401398E1,0E0,2.773501E-1,0E0,0E0,0E0,0E0],"parents":[2147483647,0,0,1,1,2,2,3,3,4,4,8,8,10,10,12,12],"right_children":[2,4,6,8,10,-1,-1,-1,12,-1,14,-1,16,-1,-1,-1,-1],"split_conditions":[1.0497755E0,8.78099E-1,5.333728E-1,-1.4068677E0,4.5119372E-1,6.350918E-2,2.8770784E-1,1.9017493E-2,8.66175E-1,-4.9288925E-2,-6.782318E-1,-5.1575728E-2,-8.603907E-1,2.8625953E-1,-3.73622E-2,-2.8137354E-2,2.359449E-2],"split_indices":[4,4,6,1,6,0,0,0,4,0,1,0,1,0,0,0,0],"split_type":[0,0,0,0,0,0,0,0,0,0,0,0,0,0,0,0,0],"sum_hessian":[1.4943608E2,1.3814691E2,1.1289165E1,1.07741196E2,3.0405714E1,1.1638124E0,1.0125352E1,1.1339511E0,1.0660725E2,1.7715183E1,1.2690531E1,1.0443488E2,2.172368E0,1.0163719E1,2.5268123E0,1.1656744E0,1.0066935E0],"tree_param":{"num_deleted":"0","num_feature":"7","num_nodes":"17","size_leaf_vector":"1"}},{"base_weights":[-3.2214988E-3,-5.153629E-2,8.76881E-1,2.584894E0,-5.043876E-2,-3.3000093E-2,2.8118703E-1],"categories":[],"categories_nodes":[],"categories_segments":[],"categories_sizes":[],"default_left":[0,0,0,0,0,0,0],"id":49,"left_children":[1,-1,3,5,-1,-1,-1],"loss_changes":[6.896948E1,0E0,1.3410077E2,1.7687057E1,0E0,0E0,0E0],"parents":[2147483647,0,0,2,2,3,3],"right_children":[2,-1,4,6,-1,-1,-1],"split_conditions":[7.9919666E-1,-5.153629E-2,-2.0638037E-2,1.1469438E-1,-5.043876E-2,-3.3000093E-2,2.8118703E-1],"split_indices":[0,0,4,6,0,0,0],"split_type":[0,0,0,0,0,0,0],"sum_hessian":[1.5101234E2,9.5723946E1,5.52884E1,2.4330738E1,3.0957659E1,1.7249212E0,2.2605818E1],"tree_param":{"num_deleted":"0","num_feature":"7","num_nodes":"7","size_leaf_vector":"1"}},{"base_weights":[3.9111185E-3,-5.162228E-2,1.7045821E0,2.9342928E0,-4.824314E-2,1.8965697E-2,3.0639336E-1],"categories":[],"categories_nodes":[],"categories_segments":[],"categories_sizes":[],"default_left":[0,0,0,0,0,0,0],"id":50,"left_children":[1,-1,3,5,-1,-1,-1],"loss_changes":[1.3402843E2,0E0,9.685201E1,7.5513E0,0E0,0E0,0E0],"parents":[2147483647,0,0,2,2,3,3],"right_children":[2,-1,4,6,-1,-1,-1],"split_conditions":[1.341903E0,-5.162228E-2,-4.3679744E-1,1.6743992E-1,-4.824314E-2,1.8965697E-2,3.0639336E-1],"split_indices":[0,0,2,4,0,0,0],"split_type":[0,0,0,0,0,0,0],"sum_hessian":[1.495223E2,1.1503607E2,3.4486217E1,2.1855597E1,1.2630621E1,1.0968578E0,2.0758738E1],"tree_param":{"num_deleted":"0","num_feature":"7","num_nodes":"7","size_leaf_vector":"1"}},{"base_weights":[-3.4211313E-3,-5.1648647E-2,2.1127367E0,2.7923822E-1,-4.476818E-2],"categories":[],"categories_nodes":[],"categories_segments":[],"categories_sizes":[],"default_left":[0,0,0,0,0],"id":51,"left_children":[1,-1,3,-1,-1],"loss_changes":[1.6614134E2,0E0,5.321382E1,0E0,0E0],"parents":[2147483647,0,0,2,2],"right_children":[2,-1,4,-1,-1],"split_conditions":[2.0237932E0,-5.1648647E-2,5.6689376E-1,2.7923822E-1,-4.476818E-2],"split_indices":[1,0,4,0,0],"split_type":[0,0,0,0,0],"sum_hessian":[1.5101807E2,1.2215689E2,2.8861174E1,2.2735575E1,6.1255994E0],"tree_param":{"num_deleted":"0","num_feature":"7","num_nodes":"5","size_leaf_vector":"1"}},{"base_weights":[1.2020489E-3,-5.158789E-2,1.2922299E0,-4.7612887E-2,1.8753115E0,2.4736683E0,-4.5238923E-2,2.6659682E0,-3.2038596E-2,-2.7390292E-2,2.8031878E0,6.128059E-2,2.8917003E0,6.6923976E-2,2.972632E-1],"categories":[],"categories_nodes":[],"categories_segments":[],"categories_sizes":[],"default_left":[0,0,0,0,0,0,0,0,0,0,0,0,0,0,0],"id":52,"left_children":[1,-1,3,-1,5,7,-1,9,-1,-1,11,-1,13,-1,-1],"loss_changes":[1.0172557E2,0E0,4.582605E1,0E0,4.7045883E1,1.5031296E1,0E0,1.0770004E1,0E0,0E0,2.8378448E0,0E0,2.072937E0,0E0,0E0],"parents":[2147483647,0,0,2,2,4,4,5,5,7,7,10,10,12,12],"right_children":[2,-1,4,-1,6,8,-1,10,-1,-1,12,-1,14,-1,-1],"split_conditions":[8.3253807E-1,-5.158789E-2,-2.5926304E-1,-4.7612887E-2,1.7577661E0,8.2985973E-1,-4.5238923E-2,-6.674425E-1,-3.2038596E-2,-2.7390292E-2,-2.0638037E-2,6.128059E-2,-4.8885962E-1,6.6923976E-2,2.972632E-1],"split_indices":[6,0,2,0,6,4,0,5,0,0,4,0,3,0,0],"split_type":[0,0,0,0,0,0,0,0,0,0,0,0,0,0,0],"sum_hessian":[1.5038422E2,1.07806206E2,4.2578003E1,1.0603458E1,3.1974545E1,2.5386103E1,6.588441E0,2.379431E1,1.5917938E0,1.0166612E0,2.2777649E1,1.1924306E0,2.1585218E1,1.0840975E0,2.0501122E1],"tree_param":{"num_deleted":"0","num_feature":"7","num_nodes":"15","size_leaf_vector":"1"}},{"base_weights":[-2.3262722E-3,2.0920303E0,-5.1647313E-2,2.763727E0,-4.4912845E-2,2.8511876E-1,6.017241E-2],"categories":[],"categories_nodes":[],"categories_segments":[],"categories_sizes":[],"default_left":[0,0,0,0,0,0,0],"id":53,"left_children":[1,3,-1,5,-1,-1,-1],"loss_changes":[1.6466553E2,5.26893E1,0E0,2.8187103E0,0E0,0E0,0E0],"parents":[2147483647,0,0,1,1,3,3],"right_children":[2,4,-1,6,-1,-1,-1],"split_conditions":[-1.6738282E0,-6.047772E-1,-5.1647313E-2,-2.0865924E0,-4.4912845E-2,2.8511876E-1,6.017241E-2],"split_indices":[4,5,0,4,0,0,0],"split_type":[0,0,0,0,0,0,0],"sum_hessian":[1.5091682E2,2.914143E1,1.2177539E2,2.2979694E1,6.1617355E0,2.1779852E1,1.1998429E0],"tree_param":{"num_deleted":"0","num_feature":"7","num_nodes":"7","size_leaf_vector":"1"}},{"base_weights":[4.5248884E-4,1.3480668E0,-5.1597804E-2,-4.913589E-2,2.5756528E0,2.847967E0,-3.6015123E-2,-2.6817499E-2,3.004079E-1],"categories":[],"categories_nodes":[],"categories_segments":[],"categories_sizes":[],"default_left":[0,0,0,0,0,0,0,0,0],"id":54,"left_children":[1,3,-1,-1,5,7,-1,-1,-1],"loss_changes":[1.0602312E2,9.656972E1,0E0,0E0,2.1390564E1,1.2200302E1,0E0,0E0,0E0],"parents":[2147483647,0,0,1,1,4,4,5,5],"right_children":[2,4,-1,-1,6,8,-1,-1,-1],"split_conditions":[-8.7737656E-1,5.040422E-2,-5.1597804E-2,-4.913589E-2,-7.654138E-2,-5.140439E-1,-3.6015123E-2,-2.6817499E-2,3.004079E-1],"split_indices":[6,1,0,0,4,4,0,0,0],"split_type":[0,0,0,0,0,0,0,0,0],"sum_hessian":[1.5034372E2,4.1206333E1,1.0913738E2,1.6733076E1,2.4473255E1,2.2423277E1,2.0499794E0,1.0355191E0,2.1387756E1],"tree_param":{"num_deleted":"0","num_feature":"7","num_nodes":"9","size_leaf_vector":"1"}},{"base_weights":[-2.5436492E-3,-5.1462274E-2,6.389159E-1,2.0789914E0,-5.0715517E-2,2.7788404E-1,-4.5105558E-2],"categories":[],"categories_nodes":[],"categories_segments":[],"categories_sizes":[],"default_left":[0,0,0,0,0,0,0],"id":55,"left_children":[1,-1,3,5,-1,-1,-1],"loss_changes":[5.022714E1,0E0,1.1308717E2,5.4865356E1,0E0,0E0,0E0],"parents":[2147483647,0,0,2,2,3,3],"right_children":[2,-1,4,6,-1,-1,-1],"split_conditions":[2.5649038E-1,-5.1462274E-2,-4.3679744E-1,1.3690382E0,-5.0715517E-2,2.7788404E-1,-4.5105558E-2],"split_indices":[0,0,2,0,0,0,0],"split_type":[0,0,0,0,0,0,0],"sum_hessian":[1.509077E2,8.402668E1,6.688103E1,2.927811E1,3.7602913E1,2.2857145E1,6.420965E0],"tree_param":{"num_deleted":"0","num_feature":"7","num_nodes":"7","size_leaf_vector":"1"}},{"base_weights":[-2.4446321E-3,1.210332E0,-5.1584568E-2,2.4905713E0,-4.953263E-2,2.7362885E0,-3.4606773E-2,-3.0675014E-2,2.9162207E-1],"categories":[],"categories_nodes":[],"categories_segments":[],"categories_sizes":[],"default_left":[0,0,0,0,0,0,0,0,0],"id":56,"left_children":[1,3,-1,5,-1,7,-1,-1,-1],"loss_changes":[9.5247955E1,1.0058599E2,0E0,1.9178146E1,0E0,1.4135925E1,0E0,0E0,0E0],"parents":[2147483647,0,0,1,1,3,3,5,5],"right_children":[2,4,-1,6,-1,8,-1,-1,-1],"split_conditions":[-7.285839E-1,-3.7463343E-1,-5.1584568E-2,-2.590806E-1,-4.953263E-2,-4.565235E-1,-3.4606773E-2,-3.0675014E-2,2.9162207E-1],"split_indices":[4,1,0,0,0,2,0,0,0],"split_type":[0,0,0,0,0,0,0,0,0],"sum_hessian":[1.5097142E2,4.4498283E1,1.0647313E2,2.515624E1,1.9342045E1,2.3183407E1,1.9728332E0,1.2549348E0,2.1928473E1],"tree_param":{"num_deleted":"0","num_feature":"7","num_nodes":"9","size_leaf_vector":"1"}},{"base_weights":[1.145237E-2,-1.7716177E-1,2.4804325E0,2.3478231E0,-2.7590826E-1,2.9397747E-1,-3.0528685E-2,3.111944E-1,-2.7792383E-2,3.146365E-1,-5.051755E-1,2.4371493E0,-3.389504E-1,-2.725995E-1,-5.150599E-2,2.8135004E0,-2.6514923E-2,6.9078046E-1,-5.0124194E-2,2.3817444E-2,-4.1938584E-2,6.2961236E-2,3.0787054E-1,-3.607067E-2,1.8709694E-1],"categories":[],"categories_nodes":[],"categories_segments":[],"categories_sizes":[],"default_left":[0,0,0,0,0,0,0,0,0,0,0,0,0,0,0,0,0,0,0,0,0,0,0,0,0],"id":57,"left_children":[1,3,5,7,9,-1,-1,-1,-1,11,13,15,17,19,-1,21,-1,23,-1,-1,-1,-1,-1,-1,-1],"loss_changes":[6.986393E1,3.541317E1,1.4521584E1,1.1604782E1,1.8447842E1,0E0,0E0,0E0,0E0,5.4086063E1,8.416557E-2,1.0062851E1,5.3984494E0,5.5773807E-1,0E0,2.7687225E0,0E0,6.30442E0,0E0,0E0,0E0,0E0,0E0,0E0,0E0],"parents":[2147483647,0,0,1,1,2,2,3,3,4,4,9,9,10,10,11,11,12,12,13,13,15,15,17,17],"right_children":[2,4,6,8,10,-1,-1,-1,-1,12,14,16,18,20,-1,22,-1,24,-1,-1,-1,-1,-1,-1,-1],"split_conditions":[1.969664E0,-2.285563E0,-4.3679744E-1,-5.5662227E-1,-4.401037E-1,2.9397747E-1,-3.0528685E-2,3.111944E-1,-2.7792383E-2,-7.303525E-1,-3.447109E-1,2.0220338E-1,-5.923154E-1,-4.0499327E-1,-5.150599E-2,-2.745564E-1,-2.6514923E-2,1.17351115E-2,-5.0124194E-2,2.3817444E-2,-4.1938584E-2,6.2961236E-2,3.0787054E-1,-3.607067E-2,1.8709694E-1],"split_indices":[5,5,2,6,4,0,0,0,0,6,4,1,6,1,0,3,0,3,0,0,0,0,0,0,0],"split_type":[0,0,0,0,0,0,0,0,0,0,0,0,0,0,0,0,0,0,0,0,0,0,0,0,0],"sum_hessian":[1.4808052E2,1.3843335E2,9.647169E0,4.352857E0,1.3408049E2,8.234128E0,1.413041E0,3.2282398E0,1.1246175E0,3.7392593E1,9.66879E1,8.160998E0,2.9231594E1,5.1067457E0,9.1581154E1,7.127233E0,1.0337653E0,3.5364702E0,2.5695124E1,1.0009918E0,4.105754E0,1.1371534E0,5.9900794E0,2.2374148E0,1.2990553E0],"tree_param":{"num_deleted":"0","num_feature":"7","num_nodes":"25","size_leaf_vector":"1"}},{"base_weights":[-3.4679605E-3,1.1483722E0,-5.158008E-2,1.7752842E0,-4.834685E-2,-4.7611576E-2,2.8038344E-1],"categories":[],"categories_nodes":[],"categories_segments":[],"categories_sizes":[],"default_left":[0,0,0,0,0,0,0],"id":58,"left_children":[1,3,-1,5,-1,-1,-1],"loss_changes":[9.036179E1,4.9084957E1,0E0,8.0696655E1,0E0,0E0,0E0],"parents":[2147483647,0,0,1,1,3,3],"right_children":[2,4,-1,6,-1,-1,-1],"split_conditions":[-7.7679324E-1,-4.3679744E-1,-5.158008E-2,-7.654138E-2,-4.834685E-2,-4.7611576E-2,2.8038344E-1],"split_indices":[6,2,0,4,0,0,0],"split_type":[0,0,0,0,0,0,0],"sum_hessian":[1.5111928E2,4.6141438E1,1.04977844E2,3.3271473E1,1.2869965E1,1.0601934E1,2.2669538E1],"tree_param":{"num_deleted":"0","num_feature":"7","num_nodes":"7","size_leaf_vector":"1"}},{"base_weights":[-2.1685455E-3,2.7791786E0,-5.1666256E-2,2.8567743E-1,6.3794166E-2],"categories":[],"categories_nodes":[],"categories_segments":[],"categories_sizes":[],"default_left":[0,0,0,0,0],"id":59,"left_children":[1,3,-1,-1,-1],"loss_changes":[2.1867961E2,2.141159E0,0E0,0E0,0E0],"parents":[2147483647,0,0,1,1],"right_children":[2,4,-1,-1,-1],"split_conditions":[-1.2873144E0,-7.085916E-1,-5.1666256E-2,2.8567743E-1,6.3794166E-2],"split_indices":[6,1,0,0,0],"split_type":[0,0,0,0,0],"sum_hessian":[1.5081396E2,2.2855528E1,1.27958435E2,2.1733755E1,1.1217716E0],"tree_param":{"num_deleted":"0","num_feature":"7","num_nodes":"5","size_leaf_vector":"1"}},{"base_weights":[3.5680443E-4,2.8018287E-1,-4.634306E-1,5.346826E-1,-5.165131E-2,2.9515433E-1,-4.343097E-2],"categories":[],"categories_nodes":[],"categories_segments":[],"categories_sizes":[],"default_left":[0,0,0,0,0,0,0],"id":60,"left_children":[1,-1,3,5,-1,-1,-1],"loss_changes":[1.977692E2,0E0,7.19536E0,1.7876745E1,0E0,0E0,0E0],"parents":[2147483647,0,0,2,2,3,3],"right_children":[2,-1,4,6,-1,-1,-1],"split_conditions":[-6.53784E-1,2.8018287E-1,-6.3405794E-1,-8.603907E-1,-5.165131E-2,2.9515433E-1,-4.343097E-2],"split_indices":[2,0,2,1,0,0,0],"split_type":[0,0,0,0,0,0,0],"sum_hessian":[1.5021422E2,2.061993E1,1.2959428E2,6.086009E0,1.2350828E2,1.1562064E0,4.929803E0],"tree_param":{"num_deleted":"0","num_feature":"7","num_nodes":"7","size_leaf_vector":"1"}},{"base_weights":[4.064512E-3,-5.156405E-2,1.0841857E0,-4.9714368E-2,2.279684E0,3.056577E-1,-4.476802E-2],"categories":[],"categories_nodes":[],"categories_segments":[],"categories_sizes":[],"default_left":[0,0,0,0,0,0,0],"id":61,"left_children":[1,-1,3,-1,5,-1,-1],"loss_changes":[8.504647E1,0E0,9.417375E1,0E0,6.113289E1,0E0,0E0],"parents":[2147483647,0,0,2,2,4,4],"right_children":[2,-1,4,-1,6,-1,-1],"split_conditions":[8.3543926E-1,-5.156405E-2,-6.782318E-1,-4.9714368E-2,5.3616154E-1,3.056577E-1,-4.476802E-2],"split_indices":[4,0,1,0,1,0,0],"split_type":[0,0,0,0,0,0,0],"sum_hessian":[1.4950906E2,1.0129375E2,4.8215317E1,2.1009474E1,2.7205845E1,2.1080368E1,6.1254754E0],"tree_param":{"num_deleted":"0","num_feature":"7","num_nodes":"7","size_leaf_vector":"1"}},{"base_weights":[1.1244586E-2,8.9177763E-1,-4.0835777E-1,-2.1521813E-1,1.9323951E0,1.3630769E0,-4.6538523E-1,-4.9176823E-2,4.0617806E-1,2.507712E0,-4.3243747E-2,-2.6602516E-2,2.1838224E-1,-1.5008569E-1,-5.145827E-2,1.833341E-1,-4.3292355E-2,-4.117247E-2,3.1903315E-1,-4.0406224E-1,1.0663777E-1,2.306558E-2,-4.77609E-2],"categories":[],"categories_nodes":[],"categories_segments":[],"categories_sizes":[],"default_left":[0,0,0,0,0,0,0,0,0,0,0,0,0,0,0,0,0,0,0,0,0,0,0],"id":62,"left_children":[1,3,5,7,9,11,13,-1,15,17,-1,-1,-1,19,-1,-1,-1,-1,-1,21,-1,-1,-1],"loss_changes":[5.551077E1,5.6268574E1,1.091543E1,4.39161E0,3.5222755E1,5.1653547E0,1.4637794E0,0E0,1.04460945E1,4.1826782E1,0E0,0E0,0E0,5.0097284E0,0E0,0E0,0E0,0E0,0E0,7.1636415E-1,0E0,0E0,0E0],"parents":[2147483647,0,0,1,1,2,2,3,3,4,4,5,5,6,6,8,8,9,9,13,13,19,19],"right_children":[2,4,6,8,10,12,14,-1,16,18,-1,-1,-1,20,-1,-1,-1,-1,-1,22,-1,-1,-1],"split_conditions":[-4.6644136E-1,-5.885241E-2,-1.2367209E0,-2.2080193E-1,-2.862159E-1,2.004439E-2,-1.8012325E-1,-4.9176823E-2,-4.3679744E-1,-2.0865924E0,-4.3243747E-2,-2.6602516E-2,2.1838224E-1,8.3253807E-1,-5.145827E-2,1.833341E-1,-4.3292355E-2,-4.117247E-2,3.1903315E-1,-1.1545459E0,1.0663777E-1,2.306558E-2,-4.77609E-2],"split_indices":[4,6,5,6,0,1,4,0,2,4,0,0,0,6,0,0,0,0,0,0,0,0,0],"split_type":[0,0,0,0,0,0,0,0,0,0,0,0,0,0,0,0,0,0,0,0,0,0,0],"sum_hessian":[1.4825716E2,4.748496E1,1.007722E2,2.339298E1,2.4091978E1,2.428672E0,9.834353E1,1.6332756E1,7.0602255E0,1.9329159E1,4.762819E0,1.0400819E0,1.3885903E0,1.3820517E1,8.452301E1,2.175389E0,4.884836E0,3.738241E0,1.5590918E1,1.1985905E1,1.8346117E0,1.0228028E0,1.0963101E1],"tree_param":{"num_deleted":"0","num_feature":"7","num_nodes":"23","size_leaf_vector":"1"}},{"base_weights":[-3.6916062E-3,9.3294036E-1,-5.055177E-1,2.0197167E0,-4.989017E-2,-5.372163E-4,-5.1539626E-2,-4.3440297E-2,2.5187147E0,2.791116E-1,-3.531013E-2],"categories":[],"categories_nodes":[],"categories_segments":[],"categories_sizes":[],"default_left":[0,0,0,0,0,0,0,0,0,0,0],"id":63,"left_children":[1,3,5,7,-1,-1,-1,-1,9,-1,-1],"loss_changes":[7.19762E1,8.413985E1,4.8984528E-1,3.8529716E1,0E0,0E0,0E0,0E0,2.0973907E1,0E0,0E0],"parents":[2147483647,0,0,1,1,2,2,3,3,8,8],"right_children":[2,4,6,8,-1,-1,-1,-1,10,-1,-1],"split_conditions":[-7.085916E-1,-1.2335962E-1,-6.782318E-1,-2.5926304E-1,-4.989017E-2,-5.372163E-4,-5.1539626E-2,-4.3440297E-2,-2.590806E-1,2.791116E-1,-3.531013E-2],"split_indices":[1,3,1,2,0,0,0,0,0,0,0],"split_type":[0,0,0,0,0,0,0,0,0,0,0],"sum_hessian":[1.5112886E2,5.24237E1,9.8705154E1,2.9569616E1,2.2854084E1,1.9416988E0,9.676346E1,5.0183463E0,2.455127E1,2.2449923E1,2.1013477E0],"tree_param":{"num_deleted":"0","num_feature":"7","num_nodes":"11","size_leaf_vector":"1"}},{"base_weights":[1.9045647E-3,-5.163441E-2,1.9321574E0,-4.3856412E-2,2.4145925E0,-3.8995426E-2,2.7789493E0,2.8869224E-1,2.1608977E-2],"categories":[],"categories_nodes":[],"categories_segments":[],"categories_sizes":[],"default_left":[0,0,0,0,0,0,0,0,0],"id":64,"left_children":[1,-1,3,-1,5,-1,7,-1,-1],"loss_changes":[1.5213126E2,0E0,3.787359E1,0E0,2.857109E1,0E0,5.998001E0,0E0,0E0],"parents":[2147483647,0,0,2,2,4,4,6,6],"right_children":[2,-1,4,-1,6,-1,8,-1,-1],"split_conditions":[1.4369038E0,-5.163441E-2,2.2935508E-1,-4.3856412E-2,3.86731E-1,-3.8995426E-2,6.046292E-1,2.8869224E-1,2.1608977E-2],"split_indices":[6,0,0,0,4,0,4,0,0],"split_type":[0,0,0,0,0,0,0,0,0],"sum_hessian":[1.5008058E2,1.1889207E2,3.1188524E1,5.2889876E0,2.5899536E1,2.9698195E0,2.2929716E1,2.1881407E1,1.0483094E0],"tree_param":{"num_deleted":"0","num_feature":"7","num_nodes":"9","size_leaf_vector":"1"}},{"base_weights":[-3.7333795E-3,1.1663963E0,-5.1582146E-2,-4.9142182E-2,2.1100907E0,2.7921465E-1,-4.480591E-2],"categories":[],"categories_nodes":[],"categories_segments":[],"categories_sizes":[],"default_left":[0,0,0,0,0,0,0],"id":65,"left_children":[1,3,-1,-1,5,-1,-1],"loss_changes":[9.1744644E1,7.3956154E1,0E0,0E0,5.3404587E1,0E0,0E0],"parents":[2147483647,0,0,1,1,4,4],"right_children":[2,4,-1,-1,6,-1,-1],"split_conditions":[-7.927123E-1,5.007082E-1,-5.1582146E-2,-4.9142182E-2,2.7826402E-1,2.7921465E-1,-4.480591E-2],"split_indices":[6,0,0,0,3,0,0],"split_type":[0,0,0,0,0,0,0],"sum_hessian":[1.5110541E2,4.5609417E1,1.05495995E2,1.6718592E1,2.8890825E1,2.2737156E1,6.1536684E0],"tree_param":{"num_deleted":"0","num_feature":"7","num_nodes":"7","size_leaf_vector":"1"}},{"base_weights":[-3.7489026E-3,-5.149107E-2,1.7103313E0,-4.42988E-2,2.1588834E-1],"categories":[],"categories_nodes":[],"categories_segments":[],"categories_sizes":[],"default_left":[0,0,0,0,0],"id":66,"left_children":[1,-1,3,-1,-1],"loss_changes":[1.3181808E2,0E0,3.4336975E1,0E0,0E0],"parents":[2147483647,0,0,2,2],"right_children":[2,-1,4,-1,-1],"split_conditions":[2.0237932E0,-5.149107E-2,5.6689376E-1,-4.42988E-2,2.1588834E-1],"split_indices":[1,0,4,0,0],"split_type":[0,0,0,0,0],"sum_hessian":[1.4844257E2,1.14882614E2,3.3559944E1,5.7877345E0,2.7772207E1],"tree_param":{"num_deleted":"0","num_feature":"7","num_nodes":"5","size_leaf_vector":"1"}},{"base_weights":[-3.9473004E-3,-5.14069E-2,9.354929E-1,-4.987664E-2,2.1554421E-1],"categories":[],"categories_nodes":[],"categories_segments":[],"categories_sizes":[],"default_left":[0,0,0,0,0],"id":67,"left_children":[1,-1,3,-1,-1],"loss_changes":[7.211406E1,0E0,9.373576E1,0E0,0E0],"parents":[2147483647,0,0,2,2],"right_children":[2,-1,4,-1,-1],"split_conditions":[5.058017E-1,-5.14069E-2,5.007082E-1,-4.987664E-2,2.1554421E-1],"split_indices":[1,0,0,0,0],"split_type":[0,0,0,0,0],"sum_hessian":[1.4847586E2,9.651852E1,5.1957348E1,2.4152779E1,2.7804571E1],"tree_param":{"num_deleted":"0","num_feature":"7","num_nodes":"5","size_leaf_vector":"1"}},{"base_weights":[-2.0488745E-3,5.7195854E-1,-5.128747E-2,-5.0092828E-2,1.2508372E0,-4.7046017E-2,1.7483982E0,-3.995138E-2,1.9931337E0,-3.1129887E-2,2.1167212E0,2.2134764E-1,-2.6762E-2],"categories":[],"categories_nodes":[],"categories_segments":[],"categories_sizes":[],"default_left":[0,0,0,0,0,0,0,0,0,0,0,0,0],"id":68,"left_children":[1,3,-1,-1,5,-1,7,-1,9,-1,11,-1,-1],"loss_changes":[4.4073135E1,5.2179092E1,0E0,0E0,3.8193962E1,0E0,1.8701874E1,0E0,9.415138E0,0E0,7.353775E0,0E0,0E0],"parents":[2147483647,0,0,1,1,4,4,6,6,8,8,10,10],"right_children":[2,4,-1,-1,6,-1,8,-1,10,-1,12,-1,-1],"split_conditions":[-5.0255364E-1,-7.927123E-1,-5.128747E-2,-5.0092828E-2,2.950479E-2,-4.7046017E-2,-1.1770863E-1,-3.995138E-2,-1.0315443E-2,-3.1129887E-2,-2.0638037E-2,2.2134764E-1,-2.6762E-2],"split_indices":[6,6,0,0,5,0,3,0,1,0,4,0,0],"split_type":[0,0,0,0,0,0,0,0,0,0,0,0,0],"sum_hessian":[1.4830809E2,6.97789E1,7.852919E1,2.7143679E1,4.2635223E1,9.572818E0,3.3062405E1,3.3171487E0,2.9745258E1,1.4367375E0,2.830852E1,2.727344E1,1.0350804E0],"tree_param":{"num_deleted":"0","num_feature":"7","num_nodes":"13","size_leaf_vector":"1"}},{"base_weights":[-3.565467E-3,2.0040154E0,-5.1505167E-2,-3.3350617E-2,2.1608762E-1],"categories":[],"categories_nodes":[],"categories_segments":[],"categories_sizes":[],"default_left":[0,0,0,0,0],"id":69,"left_children":[1,3,-1,-1,-1],"loss_changes":[1.544476E2,1.1918732E1,0E0,0E0,0E0],"parents":[2147483647,0,0,1,1],"right_children":[2,4,-1,-1,-1],"split_conditions":[-2.2905192E0,-4.3679744E-1,-5.1505167E-2,-3.3350617E-2,2.1608762E-1],"split_indices":[4,2,0,0,0],"split_type":[0,0,0,0,0],"sum_hessian":[1.4840392E2,2.954031E1,1.188636E2,1.7868423E0,2.7753468E1],"tree_param":{"num_deleted":"0","num_feature":"7","num_nodes":"5","size_leaf_vector":"1"}},{"base_weights":[5.586296E-3,-4.9491104E-1,1.1089214E0,1.871309E-2,-5.044477E-1,-4.9150657E-2,2.0900364E0,-5.141371E-2,-3.7621215E-2,2.3423405E-1,-3.750406E-2,2.3723647E-2,-2.7774176E-2],"categories":[],"categories_nodes":[],"categories_segments":[],"categories_sizes":[],"default_left":[0,0,0,0,0,0,0,0,0,0,0,0,0],"id":70,"left_children":[1,3,5,-1,7,-1,9,-1,11,-1,-1,-1,-1],"loss_changes":[8.226139E1,7.610111E-1,7.401856E1,0E0,4.3906593E-1,0E0,1.8920532E1,0E0,2.7310494E-1,0E0,0E0,0E0,0E0],"parents":[2147483647,0,0,1,1,2,2,4,4,6,6,8,8],"right_children":[2,4,6,-1,8,-1,10,-1,12,-1,-1,-1,-1],"split_conditions":[8.78099E-1,-1.4068677E0,4.5119372E-1,1.871309E-2,8.66175E-1,-4.9150657E-2,-6.782318E-1,-5.141371E-2,-3.4048653E-1,2.3423405E-1,-3.750406E-2,2.3723647E-2,-2.7774176E-2],"split_indices":[4,1,6,0,4,0,1,0,0,0,0,0,0],"split_type":[0,0,0,0,0,0,0,0,0,0,0,0,0],"sum_hessian":[1.4697205E2,1.0148681E2,4.5485233E1,1.1426749E0,1.0034413E2,1.7476315E1,2.8008919E1,9.820447E1,2.1396613E0,2.5453508E1,2.5554116E0,1.003267E0,1.1363943E0],"tree_param":{"num_deleted":"0","num_feature":"7","num_nodes":"13","size_leaf_vector":"1"}},{"base_weights":[-3.3675933E-3,-5.137349E-2,7.798683E-1,2.029415E0,-5.0209343E-2,-3.2421853E-2,2.1767648E-1],"categories":[],"categories_nodes":[],"categories_segments":[],"categories_sizes":[],"default_left":[0,0,0,0,0,0,0],"id":71,"left_children":[1,-1,3,5,-1,-1,-1],"loss_changes":[6.0139145E1,0E0,9.610213E1,1.1199158E1,0E0,0E0,0E0],"parents":[2147483647,0,0,2,2,3,3],"right_children":[2,-1,4,6,-1,-1,-1],"split_conditions":[7.9919666E-1,-5.137349E-2,-2.0638037E-2,1.1469438E-1,-5.0209343E-2,-3.2421853E-2,2.1767648E-1],"split_indices":[0,0,4,6,0,0,0],"split_type":[0,0,0,0,0,0,0],"sum_hessian":[1.4844415E2,9.008658E1,5.8357567E1,2.9257147E1,2.910042E1,1.653015E0,2.7604132E1],"tree_param":{"num_deleted":"0","num_feature":"7","num_nodes":"7","size_leaf_vector":"1"}},{"base_weights":[3.5193334E-3,-5.1463623E-2,1.4178661E0,2.2372198E0,-4.7903977E-2,1.8193148E-2,2.3153737E-1],"categories":[],"categories_nodes":[],"categories_segments":[],"categories_sizes":[],"default_left":[0,0,0,0,0,0,0],"id":72,"left_children":[1,-1,3,5,-1,-1,-1],"loss_changes":[1.09346436E2,0E0,6.3249977E1,4.094742E0,0E0,0E0,0E0],"parents":[2147483647,0,0,2,2,3,3],"right_children":[2,-1,4,6,-1,-1,-1],"split_conditions":[1.341903E0,-5.1463623E-2,-4.3679744E-1,1.6743992E-1,-4.7903977E-2,1.8193148E-2,2.3153737E-1],"split_indices":[0,0,2,4,0,0,0],"split_type":[0,0,0,0,0,0,0],"sum_hessian":[1.472111E2,1.0820544E2,3.9005665E1,2.7114407E1,1.1891259E1,1.1151843E0,2.5999222E1],"tree_param":{"num_deleted":"0","num_feature":"7","num_nodes":"7","size_leaf_vector":"1"}},{"base_weights":[-3.7802588E-3,-5.149107E-2,1.7099518E0,2.158293E-1,-4.4297915E-2],"categories":[],"categories_nodes":[],"categories_segments":[],"categories_sizes":[],"default_left":[0,0,0,0,0],"id":73,"left_children":[1,-1,3,-1,-1],"loss_changes":[1.3178758E2,0E0,3.4319717E1,0E0,0E0],"parents":[2147483647,0,0,2,2],"right_children":[2,-1,4,-1,-1],"split_conditions":[2.0237932E0,-5.149107E-2,5.6689376E-1,2.158293E-1,-4.4297915E-2],"split_indices":[1,0,4,0,0],"split_type":[0,0,0,0,0],"sum_hessian":[1.4844748E2,1.14882614E2,3.356486E1,2.7777742E1,5.7871194E0],"tree_param":{"num_deleted":"0","num_feature":"7","num_nodes":"5","size_leaf_vector":"1"}},{"base_weights":[1.4484489E-3,-5.142621E-2,1.1061925E0,-4.7268752E-2,1.5381811E0,1.9452038E0,-4.4796612E-2,2.0710123E0,-3.202697E-2,1.3117735E-2,2.153186E0,6.30027E-2,2.1937934E-1],"categories":[],"categories_nodes":[],"categories_segments":[],"categories_sizes":[],"default_left":[0,0,0,0,0,0,0,0,0,0,0,0,0],"id":74,"left_children":[1,-1,3,-1,5,7,-1,9,-1,-1,11,-1,-1],"loss_changes":[8.5533966E1,0E0,3.331509E1,0E0,3.138858E1,9.646004E0,0E0,4.4984436E0,0E0,0E0,3.9352417E-1,0E0,0E0],"parents":[2147483647,0,0,2,2,4,4,5,5,7,7,10,10],"right_children":[2,-1,4,-1,6,8,-1,10,-1,-1,12,-1,-1],"split_conditions":[8.3253807E-1,-5.142621E-2,-2.5926304E-1,-4.7268752E-2,1.7577661E0,2.7826402E-1,-4.4796612E-2,-5.955066E-1,-3.202697E-2,1.3117735E-2,-4.8885962E-1,6.30027E-2,2.1937934E-1],"split_indices":[6,0,2,0,6,3,0,5,0,0,3,0,0],"split_type":[0,0,0,0,0,0,0,0,0,0,0,0,0],"sum_hessian":[1.481327E2,1.0135379E2,4.6778923E1,1.0029131E1,3.674979E1,3.0516613E1,6.2331786E0,2.8992414E1,1.5241975E0,1.2837585E0,2.7708656E1,1.1483843E0,2.6560272E1],"tree_param":{"num_deleted":"0","num_feature":"7","num_nodes":"13","size_leaf_vector":"1"}},{"base_weights":[-2.209463E-3,1.6969601E0,-5.148971E-2,2.1423206E0,-4.4367768E-2,2.217056E-1,1.5839895E-2],"categories":[],"categories_nodes":[],"categories_segments":[],"categories_sizes":[],"default_left":[0,0,0,0,0,0,0],"id":75,"left_children":[1,3,-1,5,-1,-1,-1],"loss_changes":[1.3101067E2,3.418364E1,0E0,3.9526825E0,0E0,0E0,0E0],"parents":[2147483647,0,0,1,1,3,3],"right_children":[2,4,-1,6,-1,-1,-1],"split_conditions":[-1.6738282E0,-4.3679744E-1,-5.148971E-2,-1.4644851E-1,-4.4367768E-2,2.217056E-1,1.5839895E-2],"split_indices":[4,2,0,3,0,0,0],"split_type":[0,0,0,0,0,0,0],"sum_hessian":[1.4838634E2,3.3859135E1,1.1452721E2,2.8027266E1,5.8318696E0,2.6896545E1,1.13072E0],"tree_param":{"num_deleted":"0","num_feature":"7","num_nodes":"7","size_leaf_vector":"1"}},{"base_weights":[-1.1871713E-4,1.1488823E0,-5.1437207E-2,-4.884744E-2,2.0086193E0,2.1823537E0,-3.534485E-2,-2.6347185E-2,2.2805892E-1],"categories":[],"categories_nodes":[],"categories_segments":[],"categories_sizes":[],"default_left":[0,0,0,0,0,0,0,0,0],"id":76,"left_children":[1,3,-1,-1,5,7,-1,-1,-1],"loss_changes":[8.864066E1,6.6273636E1,0E0,0E0,1.333239E1,7.4847717E0,0E0,0E0,0E0],"parents":[2147483647,0,0,1,1,4,4,5,5],"right_children":[2,4,-1,-1,6,8,-1,-1,-1],"split_conditions":[-8.7737656E-1,5.040422E-2,-5.1437207E-2,-4.884744E-2,-7.654138E-2,-5.140439E-1,-3.534485E-2,-2.6347185E-2,2.2805892E-1],"split_indices":[6,1,0,0,4,4,0,0,0],"split_type":[0,0,0,0,0,0,0,0,0],"sum_hessian":[1.4801515E2,4.538251E1,1.02632645E2,1.5773651E1,2.960886E1,2.765115E1,1.95771E0,1.0027622E0,2.6648388E1],"tree_param":{"num_deleted":"0","num_feature":"7","num_nodes":"9","size_leaf_vector":"1"}},{"base_weights":[-2.9734857E-3,-5.129508E-2,5.771258E-1,1.6830983E0,-5.0503083E-2,2.1443381E0,-4.464606E-2,2.1866615E-1,6.1093148E-2],"categories":[],"categories_nodes":[],"categories_segments":[],"categories_sizes":[],"default_left":[0,0,0,0,0,0,0,0,0],"id":77,"left_children":[1,-1,3,5,-1,7,-1,-1,-1],"loss_changes":[4.451709E1,0E0,8.510909E1,3.5383263E1,0E0,5.449524E-1,0E0,0E0,0E0],"parents":[2147483647,0,0,2,2,3,3,5,5],"right_children":[2,-1,4,6,-1,8,-1,-1,-1],"split_conditions":[2.5649038E-1,-5.129508E-2,-4.3679744E-1,1.3690382E0,-5.0503083E-2,6.239003E-1,-4.464606E-2,2.1866615E-1,6.1093148E-2],"split_indices":[0,0,2,0,0,5,0,0,0],"split_type":[0,0,0,0,0,0,0,0,0],"sum_hessian":[1.4847751E2,7.907596E1,6.940156E1,3.4048454E1,3.5353104E1,2.7981104E1,6.06735E0,2.681497E1,1.1661329E0],"tree_param":{"num_deleted":"0","num_feature":"7","num_nodes":"9","size_leaf_vector":"1"}},{"base_weights":[-2.8924309E-3,1.0435607E0,-5.1423192E-2,1.9583856E0,-4.9265336E-2,2.1174278E0,-3.396628E-2,-3.0155038E-2,2.2329687E-1],"categories":[],"categories_nodes":[],"categories_segments":[],"categories_sizes":[],"default_left":[0,0,0,0,0,0,0,0,0],"id":78,"left_children":[1,3,-1,5,-1,7,-1,-1,-1],"loss_changes":[8.055358E1,7.041175E1,0E0,1.21124115E1,0E0,8.860519E0,0E0,0E0,0E0],"parents":[2147483647,0,0,1,1,3,3,5,5],"right_children":[2,4,-1,6,-1,8,-1,-1,-1],"split_conditions":[-7.285839E-1,-3.7463343E-1,-5.1423192E-2,-2.590806E-1,-4.9265336E-2,-4.565235E-1,-3.396628E-2,-3.0155038E-2,2.2329687E-1],"split_indices":[4,1,0,0,0,2,0,0,0],"split_type":[0,0,0,0,0,0,0,0,0],"sum_hessian":[1.4853844E2,4.8415527E1,1.0012292E2,3.0172693E1,1.8242834E1,2.8293188E1,1.8795048E0,1.2164063E0,2.7076782E1],"tree_param":{"num_deleted":"0","num_feature":"7","num_nodes":"9","size_leaf_vector":"1"}},{"base_weights":[1.4197265E-2,7.368796E-1,-5.132736E-2,1.7125179E0,-5.01387E-2,2.3441608E0,-4.621623E-2,-3.5863787E-2,2.5688818E-1],"categories":[],"categories_nodes":[],"categories_segments":[],"categories_sizes":[],"default_left":[0,0,0,0,0,0,0,0,0],"id":79,"left_children":[1,3,-1,5,-1,7,-1,-1,-1],"loss_changes":[5.625529E1,7.607277E1,0E0,4.922648E1,0E0,1.751744E1,0E0,0E0,0E0],"parents":[2147483647,0,0,1,1,3,3,5,5],"right_children":[2,4,-1,6,-1,8,-1,-1,-1],"split_conditions":[-2.8511283E-1,-5.2441764E-1,-5.132736E-2,2.3256321E-1,-5.01387E-2,-4.0374434E-1,-4.621623E-2,-3.5863787E-2,2.5688818E-1],"split_indices":[4,6,0,1,0,3,0,0,0],"split_type":[0,0,0,0,0,0,0,0,0],"sum_hessian":[1.4558438E2,6.1258183E1,8.43262E1,3.4048306E1,2.7209877E1,2.6324373E1,7.7239337E0,1.9749546E0,2.4349419E1],"tree_param":{"num_deleted":"0","num_feature":"7","num_nodes":"9","size_leaf_vector":"1"}},{"base_weights":[-3.9565093E-3,9.9570113E-1,-5.141857E-2,1.4694577E0,-4.8011646E-2,-4.726063E-2,2.162298E-1],"categories":[],"categories_nodes":[],"categories_segments":[],"categories_sizes":[],"default_left":[0,0,0,0,0,0,0],"id":80,"left_children":[1,3,-1,5,-1,-1,-1],"loss_changes":[7.683427E1,3.629803E1,0E0,5.320465E1,0E0,0E0,0E0],"parents":[2147483647,0,0,1,1,3,3],"right_children":[2,4,-1,6,-1,-1,-1],"split_conditions":[-7.7679324E-1,-4.3679744E-1,-5.141857E-2,-7.654138E-2,-4.8011646E-2,-4.726063E-2,2.162298E-1],"split_indices":[6,2,0,4,0,0,0],"split_type":[0,0,0,0,0,0,0],"sum_hessian":[1.4863557E2,4.9906208E1,9.872936E1,3.7782005E1,1.2124206E1,1.0018249E1,2.7763756E1],"tree_param":{"num_deleted":"0","num_feature":"7","num_nodes":"7","size_leaf_vector":"1"}},{"base_weights":[-2.0436614E-3,2.1515942E0,-5.15095E-2,2.196517E-1,5.981933E-2],"categories":[],"categories_nodes":[],"categories_segments":[],"categories_sizes":[],"default_left":[0,0,0,0,0],"id":81,"left_children":[1,3,-1,-1,-1],"loss_changes":[1.659909E2,7.030029E-1,0E0,0E0,0E0],"parents":[2147483647,0,0,1,1],"right_children":[2,4,-1,-1,-1],"split_conditions":[-1.2873144E0,-7.085916E-1,-5.15095E-2,2.196517E-1,5.981933E-2],"split_indices":[6,1,0,0,0],"split_type":[0,0,0,0,0],"sum_hessian":[1.4822495E2,2.7902937E1,1.2032201E2,2.6716322E1,1.1866168E0],"tree_param":{"num_deleted":"0","num_feature":"7","num_nodes":"5","size_leaf_vector":"1"}},{"base_weights":[1.1530498E-3,2.1652615E-1,-4.5909184E-1,5.151709E-1,-5.1493585E-2,2.4357744E-1,-4.291669E-2],"categories":[],"categories_nodes":[],"categories_segments":[],"categories_sizes":[],"default_left":[0,0,0,0,0,0,0],"id":82,"left_children":[1,-1,3,5,-1,-1,-1],"loss_changes":[1.489468E2,0E0,6.9746227E0,1.4077134E1,0E0,0E0,0E0],"parents":[2147483647,0,0,2,2,3,3],"right_children":[2,-1,4,6,-1,-1,-1],"split_conditions":[-6.53784E-1,2.1652615E-1,-6.3405794E-1,-8.603907E-1,-5.1493585E-2,2.4357744E-1,-4.291669E-2],"split_indices":[2,0,2,1,0,0,0],"split_type":[0,0,0,0,0,0,0],"sum_hessian":[1.4754396E2,2.5225773E1,1.2231819E2,6.185197E0,1.16132996E2,1.5181737E0,4.667023E0],"tree_param":{"num_deleted":"0","num_feature":"7","num_nodes":"7","size_leaf_vector":"1"}},{"base_weights":[3.36285E-3,-5.1400997E-2,9.426361E-1,-4.9458075E-2,1.8154446E0,2.3084028E-1,-4.429775E-2],"categories":[],"categories_nodes":[],"categories_segments":[],"categories_sizes":[],"default_left":[0,0,0,0,0,0,0],"id":83,"left_children":[1,-1,3,-1,5,-1,-1],"loss_changes":[7.253583E1,0E0,6.740032E1,0E0,3.7982147E1,0E0,0E0],"parents":[2147483647,0,0,2,2,4,4],"right_children":[2,-1,4,-1,6,-1,-1],"split_conditions":[8.3543926E-1,-5.1400997E-2,-6.782318E-1,-4.9458075E-2,5.3616154E-1,2.3084028E-1,-4.429775E-2],"split_indices":[4,0,1,0,1,0,0],"split_type":[0,0,0,0,0,0,0],"sum_hessian":[1.4726762E2,9.525292E1,5.2014694E1,1.9816708E1,3.2197987E1,2.6410984E1,5.787002E0],"tree_param":{"num_deleted":"0","num_feature":"7","num_nodes":"7","size_leaf_vector":"1"}},{"base_weights":[1.2546768E-2,7.871567E-1,-4.016255E-1,-2.0542136E-1,1.5681016E0,1.2165716E0,-4.609999E-1,-4.8883494E-2,3.86674E-1,1.9524493E0,-4.270664E-2,-2.6141837E-2,1.8681215E-1,-1.3901117E-1,-5.1288743E-2,-4.292194E-2,1.6098967E0,-4.0613633E-2,2.3711524E0,-4.7467228E-2,7.3477155E-1,-2.679102E-2,2.4996594E-1,2.4421613E-1,6.1663695E-2,-3.606699E-2,2.0750044E-1],"categories":[],"categories_nodes":[],"categories_segments":[],"categories_sizes":[],"default_left":[0,0,0,0,0,0,0,0,0,0,0,0,0,0,0,0,0,0,0,0,0,0,0,0,0,0,0],"id":84,"left_children":[1,3,5,7,9,11,13,-1,15,17,-1,-1,-1,19,-1,-1,21,-1,23,-1,25,-1,-1,-1,-1,-1,-1],"loss_changes":[4.752972E1,4.032756E1,9.83774E0,4.1509438E0,2.3072212E1,4.043852E0,1.4968758E0,0E0,8.875923E0,2.5153366E1,0E0,0E0,0E0,4.5717106E0,0E0,0E0,6.5040474E0,0E0,1.1040039E0,0E0,7.191309E0,0E0,0E0,0E0,0E0,0E0,0E0],"parents":[2147483647,0,0,1,1,2,2,3,3,4,4,5,5,6,6,8,8,9,9,13,13,16,16,18,18,20,20],"right_children":[2,4,6,8,10,12,14,-1,16,18,-1,-1,-1,20,-1,-1,22,-1,24,-1,26,-1,-1,-1,-1,-1,-1],"split_conditions":[-4.6644136E-1,-5.885241E-2,-1.2367209E0,-2.2080193E-1,-2.862159E-1,2.004439E-2,-1.8012325E-1,-4.8883494E-2,2.3256321E-1,-2.0865924E0,-4.270664E-2,-2.6141837E-2,1.8681215E-1,5.3616154E-1,-5.1288743E-2,-4.292194E-2,-2.1586697E0,-4.0613633E-2,-4.565235E-1,-4.7467228E-2,-6.04244E-1,-2.679102E-2,2.4996594E-1,2.4421613E-1,6.1663695E-2,-3.606699E-2,2.0750044E-1],"split_indices":[4,6,5,6,0,1,4,0,1,4,0,0,0,1,0,0,4,0,2,0,6,0,0,0,0,0,0],"split_type":[0,0,0,0,0,0,0,0,0,0,0,0,0,0,0,0,0,0,0,0,0,0,0,0,0,0,0],"sum_hessian":[1.4616441E2,5.061E1,9.555442E1,2.2609884E1,2.8000116E1,2.692159E0,9.286226E1,1.5408715E1,7.2011685E0,2.3495394E1,4.5047235E0,1.0068877E0,1.6852713E0,1.339826E1,7.9464005E1,4.709215E0,2.4919538E0,3.5466821E0,1.9948711E1,1.000979E1,3.3884697E0,1.0258459E0,1.4661078E0,1.8796064E1,1.1526458E0,2.2666829E0,1.1217868E0],"tree_param":{"num_deleted":"0","num_feature":"7","num_nodes":"27","size_leaf_vector":"1"}},{"base_weights":[-4.2219902E-3,8.2267493E-1,-5.0330263E-1,1.6433302E0,-4.9635526E-2,-3.139128E-4,-5.13757E-2,-4.2948294E-2,1.9813973E0,2.157613E-1,-3.4685846E-2],"categories":[],"categories_nodes":[],"categories_segments":[],"categories_sizes":[],"default_left":[0,0,0,0,0,0,0,0,0,0,0],"id":85,"left_children":[1,3,5,7,-1,-1,-1,-1,9,-1,-1],"loss_changes":[6.216873E1,6.219397E1,4.8957825E-1,2.5507942E1,0E0,0E0,0E0,0E0,1.3233337E1,0E0,0E0],"parents":[2147483647,0,0,1,1,2,2,3,3,8,8],"right_children":[2,4,6,8,-1,-1,-1,-1,10,-1,-1],"split_conditions":[-7.085916E-1,-1.2335962E-1,-6.782318E-1,-2.5926304E-1,-4.9635526E-2,-3.139128E-4,-5.13757E-2,-4.2948294E-2,-2.590806E-1,2.157613E-1,-3.4685846E-2],"split_indices":[1,3,1,2,0,0,0,0,0,0,0],"split_type":[0,0,0,0,0,0,0,0,0,0,0],"sum_hessian":[1.4864001E2,5.570212E1,9.29379E1,3.4186558E1,2.1515564E1,1.9294256E0,9.100848E1,4.755911E0,2.9430645E1,2.7428028E1,2.0026178E0],"tree_param":{"num_deleted":"0","num_feature":"7","num_nodes":"11","size_leaf_vector":"1"}},{"base_weights":[1.8547835E-3,-5.1475745E-2,1.5761428E0,-4.3395735E-2,1.9053962E0,-3.8438685E-2,2.1408315E0,2.2066846E-1,2.0896478E-2],"categories":[],"categories_nodes":[],"categories_segments":[],"categories_sizes":[],"default_left":[0,0,0,0,0,0,0,0,0],"id":86,"left_children":[1,-1,3,-1,5,-1,7,-1,-1],"loss_changes":[1.2183723E2,0E0,2.5323532E1,0E0,1.8068283E1,0E0,3.2485046E0,0E0,0E0],"parents":[2147483647,0,0,2,2,4,4,6,6],"right_children":[2,-1,4,-1,6,-1,8,-1,-1],"split_conditions":[1.4369038E0,-5.1475745E-2,2.2935508E-1,-4.3395735E-2,3.86731E-1,-3.8438685E-2,6.046292E-1,2.2066846E-1,2.0896478E-2],"split_indices":[6,0,0,0,4,0,4,0,0],"split_type":[0,0,0,0,0,0,0,0,0],"sum_hessian":[1.4780908E2,1.1179566E2,3.6013412E1,5.023967E0,3.0989445E1,2.8302724E0,2.8159172E1,2.709336E1,1.0658112E0],"tree_param":{"num_deleted":"0","num_feature":"7","num_nodes":"9","size_leaf_vector":"1"}},{"base_weights":[-4.1923258E-3,1.0108818E0,-5.142069E-2,-4.8854787E-2,1.7083858E0,2.1591118E-1,-4.4345614E-2],"categories":[],"categories_nodes":[],"categories_segments":[],"categories_sizes":[],"default_left":[0,0,0,0,0,0,0],"id":87,"left_children":[1,3,-1,-1,5,-1,-1],"loss_changes":[7.795127E1,5.3498806E1,0E0,0E0,3.4506165E1,0E0,0E0],"parents":[2147483647,0,0,1,1,4,4],"right_children":[2,4,-1,-1,6,-1,-1],"split_conditions":[-7.927123E-1,5.007082E-1,-5.142069E-2,-4.8854787E-2,2.7826402E-1,2.1591118E-1,-4.4345614E-2],"split_indices":[6,0,0,0,3,0,0],"split_type":[0,0,0,0,0,0,0],"sum_hessian":[1.485675E2,4.935498E1,9.921252E1,1.5764818E1,3.3590164E1,2.7770056E1,5.8201084E0],"tree_param":{"num_deleted":"0","num_feature":"7","num_nodes":"7","size_leaf_vector":"1"}},{"base_weights":[-3.8952415E-3,-5.1337183E-2,1.4470505E0,-4.3817822E-2,1.774892E-1],"categories":[],"categories_nodes":[],"categories_segments":[],"categories_sizes":[],"default_left":[0,0,0,0,0],"id":88,"left_children":[1,-1,3,-1,-1],"loss_changes":[1.0873725E2,0E0,2.4405006E1,0E0,0E0],"parents":[2147483647,0,0,2,2],"right_children":[2,-1,4,-1,-1],"split_conditions":[2.0237932E0,-5.1337183E-2,5.6689376E-1,-4.3817822E-2,1.774892E-1],"split_indices":[1,0,4,0,0],"split_type":[0,0,0,0,0],"sum_hessian":[1.4509178E2,1.07863434E2,3.7228355E1,5.4651093E0,3.1763245E1],"tree_param":{"num_deleted":"0","num_feature":"7","num_nodes":"5","size_leaf_vector":"1"}},{"base_weights":[-4.1970387E-3,-5.1247697E-2,8.347296E-1,-4.9633086E-2,1.771475E-1],"categories":[],"categories_nodes":[],"categories_segments":[],"categories_sizes":[],"default_left":[0,0,0,0,0],"id":89,"left_children":[1,-1,3,-1,-1],"loss_changes":[6.27404E1,0E0,7.009791E1,0E0,0E0],"parents":[2147483647,0,0,2,2],"right_children":[2,-1,4,-1,-1],"split_conditions":[5.058017E-1,-5.1247697E-2,5.007082E-1,-4.9633086E-2,1.771475E-1],"split_indices":[1,0,0,0,0],"split_type":[0,0,0,0,0],"sum_hessian":[1.4513326E2,9.0619064E1,5.4514187E1,2.2711964E1,3.1802223E1],"tree_param":{"num_deleted":"0","num_feature":"7","num_nodes":"5","size_leaf_vector":"1"}},{"base_weights":[-2.4476936E-3,5.2291894E-1,-5.112235E-2,-4.9856406E-2,1.0885856E0,-4.66734E-2,1.4715905E0,-3.938348E-2,1.6520563E0,-3.052242E-2,1.7419811E0,1.8117529E0,8.354618E-3,1.8403928E-1,5.7359677E-2],"categories":[],"categories_nodes":[],"categories_segments":[],"categories_sizes":[],"default_left":[0,0,0,0,0,0,0,0,0,0,0,0,0,0,0],"id":90,"left_children":[1,3,-1,-1,5,-1,7,-1,9,-1,11,13,-1,-1,-1],"loss_changes":[3.9340065E1,4.2383316E1,0E0,0E0,2.863549E1,0E0,1.3405373E1,0E0,6.645912E0,0E0,3.7089386E0,7.789612E-2,0E0,0E0,0E0],"parents":[2147483647,0,0,1,1,4,4,6,6,8,8,10,10,11,11],"right_children":[2,4,-1,-1,6,-1,8,-1,10,-1,12,14,-1,-1,-1],"split_conditions":[-5.0255364E-1,-7.927123E-1,-5.112235E-2,-4.9856406E-2,2.950479E-2,-4.66734E-2,-1.1770863E-1,-3.938348E-2,-1.0315443E-2,-3.052242E-2,-7.654138E-2,1.6268641E0,8.354618E-3,1.8403928E-1,5.7359677E-2],"split_indices":[6,6,0,0,5,0,3,0,1,0,4,5,0,0,0],"split_type":[0,0,0,0,0,0,0,0,0,0,0,0,0,0,0],"sum_hessian":[1.4517897E2,7.1411255E1,7.376772E1,2.5493542E1,4.591771E1,9.029953E0,3.6887756E1,3.1495385E0,3.373822E1,1.376805E0,3.2361412E1,3.0966192E1,1.3952208E0,2.9790703E1,1.1754906E0],"tree_param":{"num_deleted":"0","num_feature":"7","num_nodes":"15","size_leaf_vector":"1"}},{"base_weights":[-3.6941958E-3,1.6624848E0,-5.1352084E-2,-3.271754E-2,1.7760147E-1],"categories":[],"categories_nodes":[],"categories_segments":[],"categories_sizes":[],"default_left":[0,0,0,0,0],"id":91,"left_children":[1,3,-1,-1,-1],"loss_changes":[1.2491763E2,8.363907E0,0E0,0E0,0E0],"parents":[2147483647,0,0,1,1],"right_children":[2,4,-1,-1,-1],"split_conditions":[-2.2905192E0,-4.3679744E-1,-5.1352084E-2,-3.271754E-2,1.7760147E-1],"split_indices":[4,2,0,0,0],"split_type":[0,0,0,0,0],"sum_hessian":[1.4504991E2,3.3454716E1,1.1159519E2,1.7043004E0,3.1750416E1],"tree_param":{"num_deleted":"0","num_feature":"7","num_nodes":"5","size_leaf_vector":"1"}},{"base_weights":[5.3417627E-3,-4.9217546E-1,9.7404534E-1,1.8448113E-2,-5.02277E-1,-4.886599E-2,1.715333E0,-5.1255394E-2,-3.210155E-2,1.8923847E-1,-3.687923E-2,2.3740558E-2,-2.7348805E-2],"categories":[],"categories_nodes":[],"categories_segments":[],"categories_sizes":[],"default_left":[0,0,0,0,0,0,0,0,0,0,0,0,0],"id":92,"left_children":[1,3,5,-1,7,-1,9,-1,11,-1,-1,-1,-1],"loss_changes":[7.036253E1,7.520237E-1,5.4551105E1,0E0,4.4409943E-1,0E0,1.2910957E1,0E0,2.6696298E-1,0E0,0E0,0E0,0E0],"parents":[2147483647,0,0,1,1,2,2,4,4,6,6,8,8],"right_children":[2,4,6,-1,8,-1,10,-1,12,-1,-1,-1,-1],"split_conditions":[8.78099E-1,-1.4068677E0,4.5119372E-1,1.8448113E-2,8.66175E-1,-4.886599E-2,-6.782318E-1,-5.1255394E-2,1.3760965E-1,1.8923847E-1,-3.687923E-2,2.3740558E-2,-2.7348805E-2],"split_indices":[4,1,6,0,4,0,1,0,5,0,0,0,0],"split_type":[0,0,0,0,0,0,0,0,0,0,0,0,0],"sum_hessian":[1.4400177E2,9.546418E1,4.8537598E1,1.1502689E0,9.43139E1,1.6439686E1,3.209791E1,9.220831E1,2.105591E0,2.966942E1,2.4284928E0,1.0026395E0,1.1029515E0],"tree_param":{"num_deleted":"0","num_feature":"7","num_nodes":"13","size_leaf_vector":"1"}},{"base_weights":[-3.4535637E-3,-5.1212784E-2,7.0454776E-1,1.6822233E0,-4.9980868E-2,-3.182016E-2,1.789023E-1],"categories":[],"categories_nodes":[],"categories_segments":[],"categories_sizes":[],"default_left":[0,0,0,0,0,0,0],"id":93,"left_children":[1,-1,3,5,-1,-1,-1],"loss_changes":[5.2988506E1,0E0,7.32739E1,7.8721313E0,0E0,0E0,0E0],"parents":[2147483647,0,0,2,2,3,3],"right_children":[2,-1,4,6,-1,-1,-1],"split_conditions":[7.9919666E-1,-5.1212784E-2,-2.0638037E-2,1.1469438E-1,-4.9980868E-2,-3.182016E-2,1.789023E-1],"split_indices":[0,0,4,6,0,0,0],"split_type":[0,0,0,0,0,0,0],"sum_hessian":[1.4513037E2,8.461448E1,6.0515892E1,3.31823E1,2.7333593E1,1.5814422E0,3.1600857E1],"tree_param":{"num_deleted":"0","num_feature":"7","num_nodes":"7","size_leaf_vector":"1"}},{"base_weights":[3.4147091E-3,-5.1308185E-2,1.2218704E0,1.8246068E0,-4.7559496E-2,1.7437534E-2,1.8790017E-1],"categories":[],"categories_nodes":[],"categories_segments":[],"categories_sizes":[],"default_left":[0,0,0,0,0,0,0],"id":94,"left_children":[1,-1,3,5,-1,-1,-1],"loss_changes":[9.193626E1,0E0,4.536261E1,2.5717468E0,0E0,0E0,0E0],"parents":[2147483647,0,0,2,2,3,3],"right_children":[2,-1,4,6,-1,-1,-1],"split_conditions":[1.341903E0,-5.1308185E-2,-4.3679744E-1,1.6743992E-1,-4.7559496E-2,1.7437534E-2,1.8790017E-1],"split_indices":[0,0,2,4,0,0,0],"split_type":[0,0,0,0,0,0,0],"sum_hessian":[1.4409018E2,1.0160099E2,4.2489185E1,3.1300201E1,1.1188983E1,1.1330007E0,3.0167202E1],"tree_param":{"num_deleted":"0","num_feature":"7","num_nodes":"7","size_leaf_vector":"1"}},{"base_weights":[-3.970926E-3,-5.1337183E-2,1.4464263E0,1.7739074E-1,-4.3814134E-2],"categories":[],"categories_nodes":[],"categories_segments":[],"categories_sizes":[],"default_left":[0,0,0,0,0],"id":95,"left_children":[1,-1,3,-1,-1],"loss_changes":[1.086866E2,0E0,2.4375702E1,0E0,0E0],